//Numpy array shape [4095]
//Min -0.073822222650
//Max 0.064576312900
//Number of zeros 0

#ifndef B2_H_
#define B2_H_

#ifndef __SYNTHESIS__
q_batch_normalization_default_t b2[4095];
#else
q_batch_normalization_default_t b2[4095] = {-0.00814171135, -0.02752647549, -0.02020905167, -0.04465907067, 0.01771091670, -0.01276450418, -0.00287716347, -0.01135377213, -0.01623688266, 0.00232240674, 0.00077655027, 0.00023834174, -0.01664354093, 0.04607611895, 0.02386777848, -0.01025071926, -0.00559805147, -0.01204518136, -0.02529631183, -0.00307424692, 0.01391700003, -0.00757004553, -0.01547214016, -0.01209218800, 0.02008872107, 0.03619789332, 0.01115109213, 0.02092250809, -0.01589048654, 0.01076125354, 0.00469111837, -0.03614146262, -0.00972197112, -0.02210234106, -0.02033145726, -0.00599813927, 0.02458076552, 0.00329391845, 0.01619041339, -0.01813158765, 0.04356250167, -0.01582935080, 0.00851158332, 0.02586691082, 0.00488581648, 0.01012597885, -0.00529788760, 0.00669147074, 0.02150581032, -0.01642857306, 0.00653457129, -0.00989853591, 0.01526773442, -0.00291637215, 0.02277470380, -0.01621298306, -0.01652156748, -0.00640458474, 0.01191979833, -0.00712104607, -0.01184083056, -0.02608829550, -0.01330352947, -0.00631430093, -0.01538815442, 0.00713482220, -0.00399388187, -0.03623812273, -0.03091545403, 0.01683184318, -0.02325803414, -0.00799333211, 0.00097413838, -0.01768380776, 0.00488945842, -0.02089143544, -0.01531135105, 0.00946712308, -0.01865206845, -0.00494338293, -0.00191974861, 0.01085344516, -0.00483818306, -0.01043925527, -0.01106227282, 0.00687589496, -0.00595450401, -0.01160211582, -0.01037980616, -0.00293862238, -0.00133592240, 0.00277249189, 0.00135518704, 0.01920096949, -0.01529063098, 0.00887589343, -0.01778550260, -0.01474858169, -0.01489946619, 0.00740063097, 0.01492401399, -0.00932058133, 0.00908927899, -0.01091293991, 0.01089687459, 0.01617248915, -0.02025354095, -0.01414398849, -0.01417703182, 0.01747765020, -0.00859199464, 0.00830450375, -0.03956869617, -0.05273824930, 0.00755821541, -0.00581144169, 0.00591827091, -0.00698506273, -0.02943497337, -0.01958860271, -0.02405483276, -0.04132431746, -0.03529486060, -0.03642226756, 0.02001008205, -0.00009279605, 0.01169022359, -0.02546072006, -0.00585748302, -0.02907417342, 0.00044620456, -0.01214624010, 0.00158996391, -0.00063945504, -0.00269143190, -0.02584258467, -0.00584406033, 0.00003035145, -0.05407641083, 0.00677167531, 0.00195523887, -0.02537104115, -0.00395925529, -0.03464989737, 0.00666887918, -0.01418179553, -0.00859839004, -0.01364967693, -0.00404811371, 0.02208061703, -0.01542035677, 0.01027861144, -0.02409020439, -0.00168886199, -0.00076721190, -0.03753084689, -0.00848411210, -0.02249751985, -0.01423385739, -0.01234553289, 0.00031711475, 0.01901509427, 0.02328534424, -0.02523494326, -0.00186339486, -0.03466453403, 0.02413199469, 0.00082862377, 0.01472104806, -0.00959197525, -0.01498014480, 0.00706731575, -0.03744973615, -0.00057385024, -0.02365686186, 0.01138836332, 0.04396062717, -0.00349262170, 0.03077293001, -0.01045761630, -0.00888087321, -0.00446985569, -0.00877472199, 0.01565207727, -0.00455340417, 0.00864518248, 0.00511240447, 0.01125392225, 0.00621652091, -0.00139282900, 0.00840052683, 0.02900896221, -0.01908501238, 0.01450174861, -0.01377758943, -0.00158555573, -0.00445469888, 0.03264199197, 0.01225733105, 0.00298700482, 0.00235524122, -0.00237710914, -0.01141970605, 0.00894542318, 0.01133843698, -0.01905604079, -0.01172799058, -0.02420530096, -0.03111317381, -0.03344554454, -0.00472735055, -0.01804975048, 0.00638207793, -0.01134902518, 0.00686327927, 0.01019920874, -0.03899881244, -0.02318313159, -0.00962098036, -0.02899238840, 0.02188218199, -0.01158928592, -0.01826582663, -0.01718888804, -0.02041536570, -0.01421234012, 0.02071147226, -0.00286164833, -0.00207983400, 0.03906254843, 0.02138029039, 0.01184190530, 0.00852334872, -0.00478527462, -0.01050869282, 0.01607548073, 0.02485685423, 0.01487785578, -0.00341852056, 0.00268925657, -0.02549079247, 0.01361099537, -0.02769175544, -0.00009329175, -0.00463036401, 0.02084553055, -0.02124575898, -0.02961423062, 0.02058610320, 0.00546145719, -0.01712000929, 0.00917435810, 0.01635678299, -0.00416533370, 0.00800571404, -0.00758037670, -0.00199829927, 0.00930353999, 0.00638374221, 0.01829671673, 0.01139869727, -0.00722326897, -0.02315955795, -0.01576714218, -0.01825058833, 0.00537469890, -0.01139567327, 0.01366788428, -0.02549028024, 0.00013881852, -0.00751852617, -0.03179524466, -0.00697777933, -0.02749278024, -0.00631487044, 0.01090047043, -0.01430595201, 0.00422575697, -0.01381530706, -0.01073876675, 0.01659632847, 0.00114806741, 0.01023683697, 0.01212227158, -0.02922493592, -0.00443516020, -0.00385631667, -0.01847489923, -0.00554825319, -0.00231394125, -0.00862664264, -0.02558563463, 0.03879589960, 0.00002699858, 0.00819914043, 0.00381535199, 0.01240818761, -0.00746556884, 0.01698608883, 0.01278112736, -0.00126754481, -0.02149084210, 0.02335906401, -0.01571714692, -0.01883183047, 0.01246377174, 0.01060629822, -0.00616466301, -0.00464930758, 0.00733855041, 0.02859303169, 0.00734192459, 0.01324636303, -0.01826531440, -0.03754025325, -0.04011936113, -0.00329780765, 0.05213894695, 0.01206005644, 0.05081791803, 0.00984326564, 0.01644460112, 0.02387541160, -0.01687825844, -0.02542427555, -0.01838630438, -0.01037502661, 0.01255234238, -0.04503138363, -0.05243315548, 0.02419670299, -0.00680472795, 0.03946767002, -0.02259575762, -0.00075184554, -0.01967870817, -0.01218932401, -0.01654000022, 0.01303325966, -0.00790706649, -0.01476156805, 0.03019234724, -0.02029325441, -0.00920416694, -0.00869346783, 0.02511538751, -0.01706149057, -0.00550081208, -0.00451235939, -0.00179788843, -0.01107765082, -0.00527268369, -0.02713052370, 0.00633980846, -0.00831649639, 0.00811243244, 0.01499766018, 0.00520067848, -0.01820421591, 0.01845075004, -0.00243627164, 0.00731599610, 0.00978713389, -0.02022929117, -0.03823516518, -0.00517463731, 0.00474684779, -0.00840347353, -0.04408497363, -0.00746279536, -0.00768193230, 0.01885155402, 0.01567563042, 0.01306152157, 0.00335171819, 0.02276082896, 0.00040113326, -0.00731020654, -0.00918317772, -0.01243765280, 0.03721528128, 0.01693797670, 0.01285752375, -0.01521224994, -0.00340361474, -0.01249256544, 0.01504495647, 0.00266536139, 0.00403585983, -0.02277403697, -0.03363730013, -0.01628293097, -0.02119560726, 0.00422849180, -0.01613517851, -0.03272080421, -0.01070697606, 0.01009375043, -0.02694966458, 0.03086436726, 0.03219440579, 0.02985606529, 0.02152186260, -0.01625145227, 0.03232747689, 0.01227461267, -0.01693978533, -0.00119129173, 0.01665726863, -0.00149784284, -0.03677186742, 0.01065503806, 0.01113733090, 0.02051327191, -0.03660994396, -0.04135327786, -0.02806574665, 0.04319649562, 0.00475742295, -0.02693670429, 0.02432173118, 0.01886813529, 0.01185307279, -0.00290917186, -0.00602922821, 0.01720649749, -0.01141901035, 0.02528191917, 0.02498719469, -0.03286702186, 0.01125026681, -0.04291877151, 0.00960797817, -0.00286965189, -0.01903954148, 0.00577162951, 0.00271456968, -0.01816078089, 0.00102686277, -0.00281418161, -0.00949514005, -0.01666372642, -0.02143139765, -0.03923270479, 0.01168265659, 0.00564742275, 0.00574317947, 0.01266048197, 0.00718401512, 0.01165279560, -0.01486052480, 0.03182747960, -0.01841539703, 0.02665886655, -0.00316073978, 0.00857910980, -0.01130614616, -0.00101897609, 0.03139454499, -0.01323981304, 0.01670984924, 0.00580484141, 0.04544375837, 0.00373621797, 0.02243568376, 0.02688009292, 0.01115625165, 0.00851265527, 0.01374434773, 0.02152044885, -0.00085477089, -0.01777545549, -0.00106098130, 0.00730001274, 0.01273829490, -0.02761097252, -0.00033518719, 0.02643976919, -0.01026462764, 0.01347961649, -0.00138006639, -0.02657088824, 0.00666782074, 0.02717159130, -0.00415648986, 0.02491452917, 0.03061582334, 0.01394542493, -0.01540371682, -0.00582326669, -0.02699501067, 0.02243319899, -0.01584932022, 0.03959587589, -0.02963560075, 0.00174617069, 0.03295486048, -0.03030389361, -0.01626648009, -0.01955535635, 0.01988682151, 0.00533470279, -0.00882468931, 0.01991249435, -0.01087073609, 0.00967974681, 0.02975678444, 0.03085194528, 0.00493768044, -0.02180541120, -0.00542332232, 0.00781743508, -0.03506762907, -0.01374405995, -0.01145910472, 0.00898080133, 0.00149150426, 0.00076405052, 0.00920453761, -0.01355590671, -0.01310637221, -0.00525794458, -0.01260810345, -0.01919188350, -0.02848778293, -0.00921709929, -0.00447245687, -0.02539397031, -0.00182709482, 0.01794806868, 0.01203957759, 0.01562177204, 0.01367397234, 0.00927635655, 0.03221926093, 0.01646476798, -0.01269743592, -0.04664498195, 0.00115692208, 0.03511326015, -0.01696138084, 0.00629373686, -0.01530618407, 0.00564071862, 0.03491453826, -0.01243159175, 0.01825640537, -0.00381915178, 0.00356425229, 0.04452000931, 0.01352766808, 0.01067137532, 0.02567015588, 0.01094836649, -0.00823721662, 0.00174403656, -0.00168180570, 0.00778001733, -0.00614071498, 0.00636760611, 0.00675553875, 0.02327789366, -0.00337324827, 0.03259332478, -0.00277581951, 0.03247673064, -0.00430413708, -0.00014173193, -0.04245482758, 0.00546050584, 0.00628579641, 0.01118471101, -0.02337231860, -0.00533348415, 0.02626028471, 0.01662018523, 0.01495565474, 0.01662681438, 0.02510146610, -0.00919587072, 0.01935062371, -0.00074189366, -0.02111631259, 0.02218094096, -0.00799991097, 0.00620336179, -0.00060608983, -0.03071775101, 0.02052448504, -0.01940697432, -0.00711864419, 0.00979780499, 0.02054291964, -0.00344161596, -0.01415281184, 0.01899567060, -0.00557482149, -0.00906127505, -0.03718532249, 0.00842918362, -0.01549540740, 0.00491957366, -0.01096588559, 0.00391133036, 0.01790565066, -0.01812888123, -0.01703047380, 0.01377889700, 0.00165932183, -0.02007749304, -0.01187655888, -0.03330105543, -0.00092007848, 0.01715374738, -0.00690601394, 0.01634930633, -0.03235391900, -0.00722178165, 0.00715197250, -0.00217845873, -0.00754518341, 0.01253880095, -0.01421319973, -0.00584863499, -0.00864389725, 0.01624890789, -0.00168711366, 0.00440217555, -0.01088705752, -0.01655728556, 0.00273863273, 0.02812121063, 0.02381293848, 0.04059027880, -0.01119277999, -0.00324126799, 0.01028997265, 0.00924462732, 0.00156981102, -0.00222372822, 0.00942732021, -0.00149040169, 0.02143858373, -0.01364137605, -0.02326761931, 0.03304523975, -0.00041340012, 0.00152781396, -0.00129521685, -0.00362853706, -0.00649481267, 0.01014092099, 0.01190074719, 0.00284199184, 0.02008993551, 0.03194655478, 0.01134501025, 0.01277430262, -0.00574357901, 0.01171191968, 0.01531902701, 0.00449545495, 0.02572633885, -0.02354968339, -0.01498707198, -0.02312110364, 0.01951897144, 0.01536986884, -0.01408214681, -0.01330570690, 0.00666610757, -0.01899897121, -0.01153688133, -0.01056389511, 0.01057020202, -0.01663339697, -0.02739211544, 0.01639138348, 0.00205514138, 0.00520529598, 0.01708554476, -0.00240997178, 0.02550514229, -0.00822375808, 0.01302087214, 0.00198856322, -0.01848209463, 0.01208389364, 0.00791914482, -0.03830084577, -0.00296207005, -0.04580559209, -0.00082962634, 0.01456297934, -0.01680756360, 0.02924988791, 0.05045769736, -0.00159316137, 0.00186800631, 0.01819799095, 0.01395654213, 0.01250448637, -0.02665529959, 0.00048946397, 0.00165032595, 0.01228196919, -0.00054065441, 0.01079342701, -0.00028468133, 0.02293782122, -0.01120400149, 0.00611341745, 0.00252050371, 0.03234256059, -0.05176234618, -0.02651011571, 0.02336196415, 0.04033448547, -0.00254732487, -0.00352557306, -0.00082185096, -0.01330072340, -0.00147367967, 0.02153969556, 0.00146455225, -0.04311602935, -0.00407181541, 0.00333765382, -0.02723030001, -0.03431977704, -0.00405931752, 0.00041761235, -0.00960233808, -0.02395265549, -0.00445792731, 0.00601524161, -0.02386966720, 0.02261386998, -0.02217444032, 0.02240027674, 0.00824365392, 0.02688888460, -0.00270468369, -0.03281864524, -0.00151109474, 0.02745782211, 0.01790542901, 0.02010878175, -0.00349950371, -0.00269109709, 0.01098490879, 0.00723837921, 0.01953467540, 0.02987400629, 0.00990701932, -0.00822404586, 0.00962655339, -0.00833981950, 0.00938464608, 0.03103283606, 0.01463148557, 0.02148239687, 0.03822854534, 0.02027030289, 0.00019155815, 0.00336600677, -0.01508635469, 0.02429470234, -0.00071201241, 0.00905824639, 0.00308282487, 0.02426334471, -0.00635915389, 0.00433974341, 0.00151304249, -0.00346182380, -0.01976070553, 0.01839805022, -0.00294239167, 0.03396553174, 0.01414439827, 0.00339043140, 0.00773346052, 0.00502569880, 0.02863657102, 0.01215111837, -0.02428766713, -0.00711181993, -0.02304087579, 0.00903124455, 0.03372026607, -0.02240735292, -0.00001943693, -0.00599359628, -0.01486971974, 0.00863267947, 0.00216317200, -0.02124541253, 0.01671758294, 0.02521869726, 0.01098808553, -0.01601595432, 0.01409722771, 0.02500878461, 0.03851355240, -0.00807062630, -0.01799955033, -0.00238889060, -0.01890442707, 0.00913435780, 0.00062679499, 0.00315415394, 0.00258103665, 0.00442059617, 0.00405440200, -0.02342327312, 0.01440430339, 0.00557296490, -0.01481222548, -0.01551487949, 0.01275251061, -0.00129671907, -0.02685334533, -0.00991761871, -0.01884423383, -0.01347957831, -0.01497224253, -0.01086211577, 0.00260857120, 0.02202887088, -0.01795365289, -0.01699640788, 0.00815934874, 0.02272334509, 0.01303632557, -0.00800605491, -0.02518551424, 0.00006961590, 0.01876909286, -0.00684050843, 0.01955306344, -0.04920561612, 0.00413818005, -0.00395587459, -0.03853838518, -0.02158068866, 0.01827374846, 0.01637062058, -0.02989969775, -0.00540164672, -0.02618211508, -0.02548899502, 0.03666929528, 0.02952343225, -0.03903111443, -0.00853091665, 0.01533030625, -0.01367745455, 0.00283149676, -0.04258446395, -0.02883459628, -0.03225206584, -0.01861177199, -0.03266347200, 0.02028409950, 0.03314360604, -0.00654509990, 0.03236533329, -0.00307710562, -0.00245911581, 0.03719498962, -0.01230079494, -0.00833141338, -0.00559776369, -0.01031277049, -0.01782990061, -0.01439930685, -0.01956854388, -0.02678583562, 0.01507580839, -0.01260873210, -0.00755461678, -0.01710979268, -0.01033975743, -0.01470330451, -0.00398856308, -0.02392033860, -0.00766004249, -0.04189394414, 0.01248264126, -0.01052910089, 0.01742182486, 0.03554562107, 0.00754786748, -0.00560810976, -0.00502477167, 0.01947437972, -0.04027775303, 0.02310756221, -0.00667326897, -0.00736636110, 0.02070532553, 0.03077407554, 0.00449054642, -0.01220166218, 0.02559717558, -0.02611588687, 0.00821280107, -0.00205395557, 0.00708859134, 0.02309397236, -0.01271286421, 0.03367700800, 0.01086762734, -0.00637302361, -0.00756935496, 0.02580518462, 0.03384457901, 0.00336570386, -0.02251600660, 0.05022585392, -0.00791174080, -0.00560290087, 0.00228183204, -0.02155582607, 0.00427871197, -0.01539608091, -0.01578949392, 0.00125648198, 0.01541212946, 0.03026960045, -0.00372265978, 0.00090141897, 0.03521079943, -0.00698160753, 0.00913390424, 0.00335437199, -0.01040760987, 0.00424048863, -0.01190829463, 0.02723099291, 0.00418037921, -0.00820754841, -0.00977816805, -0.00993437879, 0.01981234737, 0.01567133516, -0.01254955307, 0.00211574393, 0.01198577136, 0.01667517051, -0.01640845276, 0.02738937736, -0.01037810557, 0.04903471097, -0.00591462571, 0.01055121236, 0.00154845882, 0.00094677741, 0.01611272432, -0.01893126406, 0.01309879869, 0.01633796655, -0.01647215337, -0.00884121191, 0.00741603132, 0.01322224084, 0.02233134396, 0.00854373537, 0.00137027912, -0.01996299997, -0.00341234868, 0.01835122705, -0.00110584253, 0.01085020974, 0.02445798367, -0.00683133444, 0.00777466828, 0.01273090392, 0.01817040518, 0.01534347888, -0.00063021202, 0.01095771976, -0.01606295444, -0.00780483522, 0.00948470272, 0.00218869653, -0.00438289158, -0.01747954451, -0.00493187737, -0.00835188944, -0.00242813770, 0.03047026321, 0.00513898721, -0.01365608349, 0.03296120837, -0.00275272643, 0.01598634943, -0.00323037081, 0.00879033376, 0.00026100781, 0.01077260450, 0.02780589648, 0.00601872848, 0.03727733344, 0.02765759267, 0.02755367011, -0.00667677680, -0.00201385212, 0.02598955110, 0.01149181370, 0.00799229182, 0.02723662928, 0.04093758389, 0.01255517825, 0.01344107743, -0.04925524816, 0.01694123819, 0.02497618645, 0.00292248395, 0.03735027090, 0.02536312304, 0.03364172578, -0.00150138489, 0.00674746512, 0.03200353682, 0.01930877939, -0.00896889064, -0.00822637510, -0.03487180918, 0.01089307107, 0.00847398769, 0.02232318744, 0.03002177179, 0.00857179984, -0.00148355728, 0.00000825164, 0.02300312370, -0.00320651336, 0.00008754915, 0.01888643391, 0.01692210883, 0.01347445510, 0.02144954726, 0.04253564030, 0.00148053095, 0.00774802174, -0.00317451265, -0.00310211466, -0.00551200751, 0.00611512642, -0.01735107973, 0.01855325699, -0.00262717647, -0.02657422610, -0.00142676383, -0.00815578736, 0.01623933390, 0.00176381064, -0.01004283410, -0.00181293115, -0.00658441242, 0.00139181060, -0.01962682046, -0.01501164585, -0.00106174499, 0.03053374402, 0.02699320950, -0.00077726849, -0.00707218982, -0.02349557169, -0.01112277620, 0.01138982922, 0.01248476095, 0.00993776135, -0.02860082500, 0.02353900857, 0.01217523217, 0.01144953817, 0.03706955165, -0.01947880536, 0.02517084032, 0.00454428513, -0.00483377092, 0.00620286353, -0.00974932406, 0.01102211792, 0.00886433944, 0.01295780484, -0.00076543447, 0.02307770215, -0.01494432241, 0.00696737180, -0.01094787940, -0.05148086324, -0.01489324309, -0.00866678171, 0.01447400358, -0.00397369359, -0.02885200456, -0.01102244109, -0.00148678117, -0.00080995215, 0.00889679603, 0.00386587786, 0.00764435111, 0.02421398275, -0.00179602508, 0.00025968300, 0.02165985107, 0.00038146437, -0.02361507714, -0.01937967725, 0.02555983700, -0.02181278542, 0.02000173740, 0.01453036908, -0.01625004224, 0.01999722049, 0.00631293375, -0.00065582572, 0.00286658970, -0.02643907070, -0.01290026680, 0.05299558491, -0.02186646312, 0.01129501220, -0.01128036063, -0.04642044008, 0.00889919046, -0.01445585303, 0.01782859862, -0.02350520715, -0.04260938615, -0.00543402787, 0.01444798615, -0.00146702211, -0.01322357915, 0.00482056383, -0.01210130751, -0.01721160673, -0.01033852249, 0.01331540756, 0.00296147820, 0.01075258013, 0.02899309620, 0.02104406245, 0.01527097076, 0.00126676168, -0.00093694817, -0.01977547258, 0.01240081806, -0.01335596293, -0.02411709726, 0.01006536838, -0.00299911061, -0.01270838361, 0.00025811000, -0.00991931744, -0.01708611287, 0.01140090823, 0.01821336895, 0.02188184485, 0.03314762935, -0.01728123240, 0.00420190115, 0.00053743273, -0.01522227563, -0.00178115373, -0.00227415445, -0.01196245663, 0.04007910192, -0.00676153973, 0.01725819334, -0.00045242091, -0.00523797562, 0.00896588340, -0.01457436197, 0.03317422420, -0.01582157239, 0.01278861519, 0.00880036876, 0.00419451483, 0.02610570937, 0.02556438372, 0.01797237247, -0.01457166113, -0.00619512470, -0.01347527653, 0.00446419325, 0.00482096476, -0.00623498531, 0.00857137144, 0.01838913001, 0.01364963222, 0.01204099506, 0.03520984948, -0.00217781635, -0.01479389425, -0.01395257097, -0.00850560144, 0.01294020843, -0.01108636241, 0.00406745169, -0.00062576786, -0.00614194805, -0.01616084389, 0.00577802584, -0.01136310678, 0.01932686940, 0.00857886393, -0.00138816051, -0.00443925709, 0.02062206902, -0.02742250077, -0.00451635988, -0.00304374495, 0.00369916135, 0.02163213678, -0.01251116581, 0.00533996383, 0.02705975994, -0.00356526067, 0.02210580558, 0.03463548049, -0.00838537514, 0.02323399298, 0.02730179392, 0.02336330339, 0.01200718805, -0.02076475136, -0.00117371744, 0.01264705881, -0.00285027153, -0.00311547518, 0.01449243538, -0.01343627181, 0.00610683113, -0.01036553737, 0.02567469142, -0.02252540737, 0.00567571912, 0.00707607996, -0.00195109867, 0.00568408659, 0.00638507120, -0.00094495667, 0.03150797263, 0.00710207177, -0.01917086355, -0.00917837583, 0.01386253443, -0.01710319333, 0.00445852056, 0.00553884637, -0.00814654212, -0.01832830720, -0.01736854576, -0.00139799761, 0.00360764749, -0.00472563598, -0.00485033914, -0.01628948189, -0.01210889593, 0.00814308226, -0.00186459953, 0.00783380214, 0.00509568211, -0.00060867704, 0.01932550594, 0.00621417863, -0.00876134168, 0.05599455163, -0.04216611758, 0.01574102975, 0.02694425732, 0.02468155511, 0.01618125848, 0.00848605298, 0.01554463431, -0.01449608523, -0.00946364738, 0.01513108239, 0.00460107485, -0.01785888523, -0.01957398467, 0.01992762648, 0.00458617928, 0.02521299385, -0.00711586419, 0.01128386799, 0.00261076191, -0.00467439741, -0.00854342431, 0.00981273130, -0.01436407119, -0.00104930648, 0.00446337927, -0.00288192532, 0.02626812086, 0.00912914146, 0.01837124117, 0.00177935895, 0.01977784745, -0.00756741408, -0.00580994925, 0.01942954957, 0.00678560510, 0.01617732644, 0.00227980968, 0.01261463203, -0.01469734218, 0.01882300526, 0.00692977896, -0.00777909998, -0.01270247810, -0.02114728838, -0.02120996825, 0.00442839041, -0.01433689985, 0.03897720948, 0.00343946903, -0.02109761536, -0.00214466546, 0.03494684398, -0.01036165189, 0.01215848606, 0.01402019709, 0.03121981770, 0.00475271046, 0.02857603505, -0.02009655535, -0.02231076360, -0.00120618416, 0.01360676810, 0.02289453708, -0.00664475653, 0.00833845045, 0.01249987632, 0.01172773726, -0.01815692335, 0.02258338593, -0.03085990250, 0.00165225065, -0.00335084251, 0.01646839827, 0.00570773659, 0.04047928378, 0.02397785150, 0.01639935374, 0.02062012814, -0.00935283862, 0.02971518040, -0.02312653884, 0.05004661158, -0.00000180257, -0.01352008246, -0.00853393134, -0.01518457383, 0.01294531487, 0.01876366884, 0.02819749154, -0.03334167600, 0.02411565371, -0.00899815559, -0.02487280592, 0.02421430498, 0.02134576999, 0.00758186169, 0.00561413309, -0.01524909865, 0.00217495719, 0.01304407418, 0.01154697966, 0.01554612350, 0.00807903707, 0.01947619021, -0.01483998634, 0.01636272110, 0.01099705137, 0.02976499312, 0.00413007149, -0.01043229643, 0.00577595178, 0.00365978433, -0.04642994702, -0.03901123255, 0.00741636660, 0.02186310291, -0.01023357082, -0.00666885544, 0.02559847385, 0.01529767923, 0.03453367203, 0.06129150838, -0.01380494237, -0.01168027148, -0.00290913600, 0.01929248869, -0.00617910270, -0.00930879451, 0.00933955051, -0.01721973345, -0.00040457863, -0.01360499114, -0.00616769679, 0.05574940518, 0.01743105985, 0.00320172706, -0.03284301981, 0.01444847137, -0.01576432958, 0.02575406432, -0.00039865426, -0.01284276042, -0.01875294372, 0.00255771563, -0.02691811137, 0.00892406330, 0.01154613122, -0.00113254553, 0.01230677590, 0.02181250788, 0.01280882396, 0.02011650428, -0.02807813697, -0.01842168160, 0.02765518427, 0.02029721066, 0.01278522331, -0.03379691392, 0.01690209284, 0.01453135721, -0.00944035221, 0.01880542934, -0.00315765897, -0.00816256925, 0.01618477330, -0.00718389079, -0.01478727628, 0.01969452202, 0.02559476346, -0.00587682659, 0.02184496075, -0.00618187804, 0.00690961396, 0.03096632101, 0.02126080170, 0.02114456147, 0.01963742264, 0.01103457250, 0.02233997732, 0.05123031139, 0.01883720979, -0.01096384414, 0.01575340889, -0.00639568083, 0.00668792753, -0.02164585516, 0.02515198104, 0.02015903033, -0.02376792394, 0.00818016566, -0.02188318223, 0.05199610442, 0.02465821803, 0.01749884896, 0.02247710526, 0.00386325875, 0.04330788925, 0.01986268349, -0.00393676152, 0.01110644080, 0.01274547167, 0.02901460230, -0.01176980976, -0.02587787434, -0.00287048472, 0.01721262373, 0.03033530712, 0.01165460050, -0.00917979330, -0.00460959738, -0.00742552476, 0.03149523214, -0.00297533395, 0.00761780236, -0.01491413359, -0.00288089947, 0.02711381949, -0.04781611264, 0.02316652983, -0.00842010695, 0.01566368714, 0.00847676024, 0.01965413243, -0.00365096191, 0.01196668483, 0.00684548542, 0.00983471237, -0.01402431726, -0.01399566792, -0.00778952893, 0.01155843399, -0.00646687020, -0.01141702104, 0.01947269961, -0.00735156098, 0.00062399125, -0.02100358158, 0.00061609736, 0.01411436405, -0.02044956386, 0.00771935005, -0.00986835547, 0.00357907172, 0.00205615442, -0.02313135937, -0.00203752634, -0.00297199143, -0.01865085028, -0.02114075795, 0.01310962625, 0.00348275341, 0.03964942321, 0.01389515400, 0.02964626625, -0.01216572896, -0.00906226505, 0.02895228565, -0.01671666093, -0.02452547103, 0.03744909912, -0.00125878816, -0.02999760211, -0.01269621309, 0.00800351612, -0.00411764160, -0.00000517839, 0.01779720187, -0.00009501050, 0.03076794744, -0.00597057492, -0.01805445179, -0.02501242608, -0.00101709599, 0.02255603671, -0.02433128096, 0.00451716175, -0.01184147410, -0.00348537602, 0.01083617471, -0.01129445899, 0.01799836755, 0.01688076369, 0.01379335113, -0.01270754635, -0.00233291462, 0.01365710516, 0.01341393776, 0.03222196922, -0.00049726013, -0.03222393245, 0.01557097491, -0.00890286639, 0.00422981754, 0.00958243664, 0.00608089007, -0.00153669366, 0.03817448020, -0.00254878891, 0.00699162856, -0.01521884557, 0.02236777171, -0.03155268356, -0.01764223725, -0.00501757953, 0.02002090216, 0.00143546984, 0.00174001651, 0.00930169784, 0.01799943484, -0.01712405682, 0.01955529861, -0.00766451377, 0.00805355236, 0.02271320671, -0.03010420874, 0.00583362114, 0.00786038395, -0.02115758136, -0.00100012473, 0.02780786902, 0.01665176637, 0.01221912820, 0.02731539682, -0.00719714630, 0.01857307740, -0.00471262727, -0.00024981098, 0.02408445999, -0.00511079608, -0.00987287611, -0.02264120243, 0.00851200707, 0.00049904734, -0.00306622987, 0.03532734141, 0.00751532055, 0.01235332899, 0.00641703699, 0.02847233787, -0.00588715263, 0.01127389725, 0.00556603447, 0.02159788460, 0.00506213401, 0.01096504740, 0.00851930398, -0.02366257459, -0.00772357825, 0.00479690405, 0.00017771032, 0.00526050339, -0.00527963648, -0.00435174722, 0.01411967166, 0.01310040336, -0.01184258424, -0.00524345133, -0.01367920265, -0.01208644640, 0.02284320816, 0.01140138321, -0.03445173800, 0.03369757161, 0.00807337835, 0.01508178189, -0.03022014163, 0.01500346325, 0.02101446129, 0.00139137637, -0.00278090034, -0.00617813040, -0.00349555491, 0.00219398225, 0.01457266603, 0.00665990822, -0.02000205778, 0.03419492394, -0.01032911334, -0.01527392864, -0.00507588126, 0.00302456040, -0.00612149388, 0.01959402487, 0.01100797020, -0.00445992965, -0.01980736479, -0.01110297814, 0.02360789105, -0.02308914624, 0.02142167278, -0.01964017004, -0.00247965707, -0.01124015823, -0.00942461845, 0.00366957113, 0.00160429638, 0.02899515815, 0.03639050201, 0.01625041105, 0.00065813493, 0.01468846202, 0.02093526907, 0.01498348266, 0.02991444990, 0.00482038176, 0.01754150353, 0.03931470588, 0.01244137622, -0.00347326696, 0.01447956264, -0.00401919847, -0.00794111565, 0.02028273046, -0.00288003590, 0.00579296658, 0.04638778791, 0.00833772030, -0.02325269952, 0.02146985009, 0.02515541762, 0.01776964031, -0.02755538188, -0.00022089737, -0.00573008275, -0.01963095181, 0.02767730504, 0.03030452505, -0.00474221539, -0.00305545214, 0.00208092458, 0.01789149828, 0.02342903614, -0.01196030248, 0.00938138366, 0.00727294292, 0.00046284590, 0.04339051619, 0.01244951785, -0.01877794228, 0.00766704138, 0.01315609179, 0.03490250185, 0.01780188829, -0.03519583866, -0.01013761386, 0.00031848904, 0.00176255219, -0.02450717241, 0.03694334254, -0.02510024235, 0.02612083778, -0.01712793112, 0.00411998574, -0.03560636193, 0.01394163445, -0.00556126796, -0.00700592436, -0.01072501671, 0.01280385535, 0.01372062042, 0.01538875606, 0.01366074756, 0.00282874471, -0.00404209411, 0.00110662822, 0.03072935343, -0.00783709437, -0.05161311477, 0.01969185472, 0.01491371915, 0.01102368999, 0.01734996960, -0.00580317667, 0.02154933102, 0.01009323727, -0.02737698331, -0.01355709881, -0.01024437416, 0.00207868777, -0.03064142726, 0.02513468824, 0.01328012999, 0.05514123663, 0.00255607767, -0.01610671356, 0.02830228955, 0.02064018324, -0.03351952136, 0.00024180429, -0.00597268855, 0.02747871913, 0.01867665909, 0.00304470863, -0.03845025972, 0.00550889596, 0.01942645572, 0.01783952117, 0.01539428625, 0.01615223475, 0.02019874007, 0.03269032389, 0.00114543620, 0.00069531519, -0.00183915673, -0.02284890041, -0.00064963091, 0.01809387654, -0.00165780541, -0.03405643255, 0.01460002922, -0.01016680803, 0.02897220664, 0.01011745632, 0.02464126050, -0.01858551055, 0.01427575201, 0.02216034196, 0.03219759092, 0.02005434409, -0.01324649435, -0.01400279347, 0.02418352105, 0.00323685026, -0.00357758277, -0.00943662971, -0.00911778770, -0.02718424797, 0.00504563097, -0.02428838797, -0.00574064581, 0.03435723484, -0.01705309749, -0.01324038021, 0.00681490544, 0.02995215729, -0.03912185133, -0.00917248894, 0.00685099047, -0.02485765330, 0.01108335052, -0.00417038286, 0.01025818661, -0.01081450935, 0.02432212979, 0.02863256261, 0.01010390092, 0.00728440005, 0.00615943177, -0.02846402302, 0.01094270498, -0.00158889452, 0.02885504998, 0.00664122403, 0.00625003222, 0.00211448967, 0.02985015512, 0.00820223149, -0.00239695259, 0.01356882881, -0.01606684364, -0.03709160909, 0.00847846270, -0.01052313857, -0.01216798741, 0.00933214370, -0.01640313119, -0.01520023495, 0.00817029644, -0.00461861305, -0.04278248921, 0.01085411105, 0.01768408716, 0.00632235035, 0.01817198098, 0.03470071778, 0.00942783244, 0.00012673391, -0.02159094252, -0.01332697086, 0.01914891787, 0.01589475572, 0.00411456358, 0.00711918622, 0.00588349160, -0.02474046871, -0.01826447248, -0.01320914552, -0.02949453145, 0.01129487343, -0.01282100938, 0.00943922624, 0.01445319038, -0.00631362852, -0.02725413814, 0.01886846870, 0.02278375998, -0.00888088625, 0.01307748258, 0.00198003417, 0.01893449761, 0.03584705293, -0.00163918443, -0.01770934835, -0.01226283610, -0.03267336637, 0.00433611125, -0.00678089494, 0.00059339684, -0.01267050672, -0.02803221717, 0.02460103296, 0.00097239658, -0.02284825966, 0.00004742667, 0.01385812275, -0.00591984764, 0.00877037644, 0.02286650054, -0.00481456751, 0.01909717917, 0.00252259918, 0.01520773210, 0.01965277642, -0.02568022348, 0.00074258214, 0.01338304766, 0.00744145270, -0.00274171890, 0.03022367507, -0.02810826898, 0.01748554222, 0.01527738106, -0.01487073954, 0.01301564928, 0.00837283954, -0.01913143136, 0.02100598067, 0.00531115569, 0.00554366037, 0.00285314303, 0.02038108557, 0.00007124105, -0.06266013533, 0.00470001623, 0.00029415032, 0.01185110584, -0.01140960306, 0.02247560583, -0.02314732783, 0.01890918240, -0.00867287535, -0.03234781697, -0.01196076162, 0.00476564653, 0.00626074197, -0.01643640175, -0.01369341277, -0.00870575104, -0.02080865949, -0.01860022172, -0.01681250706, -0.00217832485, -0.00009918478, -0.03136221319, 0.02470958047, 0.04035815597, -0.00687255524, 0.03013429232, -0.00069789542, 0.00373876048, -0.00369665795, -0.01565276645, 0.01065916102, 0.01551531069, -0.01175786182, -0.00220761984, 0.03766774014, 0.01337505691, 0.01873494498, -0.02483168803, 0.00996465888, -0.00412357785, -0.00299949991, 0.00191098813, -0.00192090683, 0.01683303900, -0.04102941230, 0.04085795581, -0.01927940175, -0.01822008379, 0.01258794963, 0.02115594037, -0.01120647974, -0.01782539859, -0.03737714142, -0.03097632155, -0.00271565281, -0.02941405401, -0.01234857552, -0.02777867950, -0.01748921722, 0.01479779929, 0.01402844768, -0.00477613509, -0.00779333105, -0.01183909830, 0.00352363521, -0.02132241055, -0.01960837282, -0.01000236720, 0.02485446818, 0.01969946735, 0.00742676901, 0.00512765627, 0.02027794532, 0.03591991216, 0.01317158155, 0.01757742837, -0.01929837093, -0.00062772469, 0.02018470131, 0.00251398096, 0.02025730163, -0.00408346951, -0.00663741911, 0.03115717508, 0.00889616646, -0.01066506095, 0.01500355266, 0.01032238454, 0.01769259013, -0.00711799506, -0.01736076735, 0.01686286740, -0.00173858192, -0.00229710038, 0.02565092593, 0.01885151491, 0.03019003384, -0.02510659769, -0.00009713857, -0.01498835161, -0.02416783385, -0.01048479043, 0.01843585074, 0.00488917716, 0.02853849158, 0.02153109200, -0.00369198481, -0.02052295208, 0.01106244326, 0.00516905636, 0.03189954907, 0.00949819200, 0.04502074420, 0.00334176421, 0.00004819105, 0.02650860697, -0.00850035250, -0.00778900739, 0.00242261193, 0.01038977318, 0.01899581589, -0.02646998502, 0.01339514833, -0.02574633248, -0.00098012364, -0.02285109274, -0.00444755889, 0.01079944242, -0.01249774545, -0.00360588846, 0.00112383685, -0.01627169549, 0.00471138023, 0.01060279459, -0.00543156732, -0.01196418889, 0.00045695016, 0.01296775136, -0.01816848852, -0.01234796271, -0.01204589009, -0.00669302745, -0.03412623703, 0.00597928092, -0.02773598768, -0.02296544798, -0.00626512757, 0.00610110350, -0.03208201006, 0.00797443744, -0.05400150269, -0.03200271726, -0.00868775323, 0.03782394901, 0.02215765044, -0.00875366107, 0.00953443162, -0.00263765641, -0.00843726285, -0.02388964221, 0.00262694806, 0.01474513486, -0.00206275471, -0.00866498426, -0.01335845143, -0.02965760045, 0.03404863179, -0.02107984014, 0.01240822300, 0.00993033033, -0.00278396625, 0.00950601790, 0.00038418587, -0.01105039008, 0.02511513047, 0.00078282424, 0.01035995968, 0.00171265088, 0.03479235619, -0.00830814987, 0.02162008733, 0.00526350085, -0.01122139581, -0.01820333675, -0.01014934480, -0.00633839378, -0.01743138209, 0.01130634546, 0.01946754567, -0.00382459420, -0.01126358472, 0.00270736660, 0.00186756346, 0.01755125634, -0.04581879079, 0.02031595632, -0.02536734007, 0.02497186139, -0.01239470951, 0.01011332870, -0.02612178586, -0.00041728094, -0.00385899562, 0.02934721485, -0.00447103381, -0.00015302727, 0.02395579591, 0.01782239601, 0.01816100627, -0.00835982431, 0.00875332765, 0.00962537155, -0.02670091018, 0.01658704318, 0.00724831270, -0.01113538072, 0.01912552305, 0.00647977646, -0.00866371766, 0.00341437757, -0.02128889970, -0.02151475847, -0.00453408062, 0.00788672455, 0.01229072083, 0.00298096938, 0.01862711087, -0.02895270661, -0.00918367691, -0.01586769521, -0.04822044075, -0.01704069227, -0.00279224524, 0.03465737030, -0.00296797347, -0.00420556869, 0.01950931549, 0.04064527154, 0.00271140947, 0.01260982268, -0.00893835165, -0.00561435753, 0.02377273142, 0.00338605978, -0.00986076333, 0.00397005770, -0.03302282467, -0.00104018394, -0.00868615136, 0.00823851023, -0.00853586569, 0.01221741829, 0.00141740637, 0.00399140082, -0.01178738289, -0.01376661006, 0.02340153605, -0.00439838972, -0.03064043075, 0.03282642365, -0.01991143823, -0.01974421740, 0.01296062116, 0.00055964896, -0.02495912462, -0.01234798133, -0.03067758679, -0.05292300880, 0.00188720366, -0.02679210156, 0.00654442050, 0.00693746097, -0.00049631658, -0.02256590687, 0.00217480212, -0.01826598123, -0.00873424299, 0.01138581615, 0.00474007893, -0.00895947032, -0.00626899488, -0.00393490447, -0.00387136498, -0.02439158410, -0.01553658117, -0.04434827715, -0.01555791311, 0.01130207442, -0.01491618343, -0.02202808484, -0.03136210516, -0.00962799974, 0.01605935022, -0.01394736767, 0.01856002398, -0.01645782590, -0.00522295944, -0.00968981069, -0.00050756964, 0.00721732620, 0.03300698102, 0.00054133125, -0.02047558129, 0.01074088179, -0.00209943275, -0.01758164354, -0.00411194982, -0.03123858757, -0.01565225236, 0.00011096973, 0.01471238025, 0.04081789777, 0.00137570966, -0.01875189506, -0.00968305580, 0.00640956406, 0.01207955368, 0.02527814545, 0.00330620166, -0.00166672224, -0.03944211081, -0.01022531372, -0.02697321773, -0.00633580331, -0.01311554108, -0.02580238506, -0.00969384424, -0.00213349145, -0.01248429809, 0.00092809461, -0.03484818339, -0.03245155513, 0.02463951148, -0.00416693185, -0.01970277727, 0.00373902940, 0.00642554648, -0.01462628879, 0.00292107882, -0.01693238132, 0.00437729433, 0.00306213996, -0.00869680941, -0.01959804259, 0.00165906386, -0.01517848764, -0.00906272139, -0.00015699025, -0.00687972503, -0.00759548089, -0.01460144296, 0.01173973922, -0.00746092573, 0.00032849889, 0.03033987992, 0.00204441324, -0.02574919537, 0.01832682639, 0.02309463546, -0.01710552908, -0.01060800347, -0.01287910063, -0.00390340784, 0.01707070693, 0.01481053326, -0.00553420652, -0.02729741298, -0.03961183131, -0.00254620332, 0.00473809894, 0.00804212876, -0.02917996421, -0.01933621615, -0.00041508954, 0.01381354034, -0.02446334064, 0.00313944137, -0.02841130272, -0.03683426976, -0.02471213974, 0.01495966688, 0.00606853096, -0.00401359843, -0.00123356422, 0.01104634069, 0.02628156543, 0.01202816609, -0.00127527409, -0.00052456930, -0.02814289182, -0.01508347504, 0.02339467034, 0.00244816346, -0.02386199310, -0.05782745406, -0.05084500089, -0.02392154001, -0.01031171530, -0.02811126783, 0.00111314771, -0.00642683869, -0.00901656225, 0.04300534725, -0.01037139352, -0.03160146251, -0.02039541863, 0.03541428596, 0.01360058226, -0.02051402815, -0.00211979449, -0.03303397074, 0.00254518143, 0.00844464358, -0.01623900235, -0.00440137833, 0.00266779494, -0.01053005084, -0.02135169506, -0.00887945108, 0.00759081682, -0.00497118291, 0.00432639709, -0.03297705576, -0.02433915623, -0.02077827789, -0.02080059983, -0.04685494304, 0.00038034120, -0.02266502753, 0.03144919872, -0.02681577578, 0.00365892984, 0.00512298010, 0.01295338105, 0.03152399510, 0.00096513890, -0.01507004723, 0.00517156301, 0.02783039212, 0.02121843584, -0.00919498876, 0.03240719065, -0.00109069166, 0.00936401077, 0.01858338714, -0.00574998371, -0.00628025923, 0.00576434424, -0.00184923131, -0.02541319467, -0.00264821597, 0.02496707439, 0.00866152719, -0.01983847283, 0.00086236326, -0.01469333563, 0.01769969799, -0.01117724180, 0.05543106794, -0.01193972863, -0.00955297239, -0.03396887705, -0.02100646868, -0.00784056354, -0.04485073686, 0.01141951699, 0.02625900321, 0.00270954426, -0.00170263404, -0.02176875435, 0.02085592598, 0.01843872294, 0.02075544558, -0.04574206099, 0.01171618514, -0.00209989771, 0.00494027138, 0.00417254958, -0.00304506137, 0.00682996353, 0.00112961908, 0.05748915672, 0.00350176054, -0.02975754812, 0.01419028360, 0.01180963032, -0.02917980030, 0.00605800282, 0.00481004268, 0.00185764115, 0.01048688777, 0.02942480519, 0.01362430863, -0.00411723601, 0.00618778588, -0.00292846793, 0.00872164965, -0.01303073112, -0.01360245235, 0.01753032766, -0.00605135784, -0.00010886532, -0.00214279885, -0.00137884915, 0.00403159996, -0.00159501948, -0.00223503541, -0.00579452934, 0.00615199655, -0.00055012107, 0.03681064025, 0.01741906442, 0.00788745005, -0.00267476076, -0.01943935454, -0.00276398333, 0.01472950727, -0.00366402394, -0.01058605500, -0.00887044519, 0.00634100707, -0.02116335556, -0.00703599723, 0.00229858980, -0.02890701778, -0.00361645268, 0.00121047348, -0.00565497205, 0.00221185992, -0.01504747942, -0.00518545089, -0.01929006726, -0.01399505418, 0.00140545738, 0.03522925824, -0.02062837034, 0.02066541836, 0.01947399415, 0.00407988299, -0.01292040944, -0.00912797730, 0.01872860081, 0.00550917676, 0.03290282190, -0.00101268617, 0.01537496038, 0.00025369599, -0.03092353605, -0.00100403326, 0.02946875244, -0.00122014037, 0.01093440317, -0.00591209671, 0.00398151018, 0.00194591330, 0.00457877014, -0.00689472724, 0.02376188710, 0.02039278112, -0.03463175520, -0.00715734065, -0.01497123949, -0.01376084425, 0.01707665063, 0.00362458080, 0.02340120263, 0.01731027663, 0.01863851584, 0.03529641405, 0.02141682617, -0.00873747282, 0.02273220196, -0.00825818628, 0.01487257518, 0.01479107421, 0.00687368819, 0.01341992989, -0.02728777565, 0.03655682877, 0.01732911542, 0.01445311308, 0.00826328434, 0.00247049751, 0.01600362547, -0.00435386132, -0.02015857771, 0.00669470150, 0.01579924673, 0.03015502170, -0.00075840857, 0.00056136632, 0.01780821569, 0.01636466011, 0.00594903808, -0.04019663483, -0.00326579157, 0.01987642050, 0.04092083499, 0.00247568637, -0.02029598504, -0.02143589593, 0.01369611826, 0.00632233359, -0.00667889975, 0.03438047320, 0.00109898718, -0.02660053223, 0.01104498096, 0.00293520908, 0.02877771482, -0.01684049144, -0.00467602350, -0.00954353530, 0.02314768359, -0.02532587200, -0.00941267237, 0.00786305405, 0.02556198835, 0.00138644362, 0.01641261578, 0.00431292318, -0.00561067462, 0.02564019710, 0.00794946589, -0.02323300019, 0.00503807608, 0.01852746494, -0.01055596303, 0.02325501479, 0.01442768518, -0.01180492435, -0.02319765650, 0.01631586440, -0.00434647780, -0.00695529394, -0.00443095993, 0.02129131928, 0.01974488050, 0.00129025942, 0.01935851946, -0.00033247843, 0.01983385161, -0.03906422108, -0.02015290596, 0.00125253620, 0.01061659306, 0.04151736200, 0.00085415924, -0.01186550222, 0.00037697726, -0.00175272580, 0.01102690585, -0.00430325838, -0.02040030435, 0.03657286242, 0.00252227928, 0.00374563783, 0.01178374235, -0.00892323628, 0.01138128340, 0.01471033134, 0.01085551083, -0.00211677514, -0.02246216312, -0.00929534901, 0.00127382064, 0.01665683463, -0.00754157640, -0.03647255525, -0.01973053813, 0.00481092092, 0.03164312243, 0.01843416132, 0.01633997262, -0.00805199705, -0.00957480818, 0.01651514880, -0.00181068224, 0.00514132995, 0.00674977899, -0.00508398516, -0.00399806350, 0.02796239220, 0.00473094964, 0.00635838881, -0.00591788860, 0.00644389680, 0.00351047982, 0.01656016894, 0.01099511888, -0.02242322639, 0.01836837828, -0.01004702784, 0.01929504797, 0.00266446592, 0.00734779425, -0.00832380727, 0.00851585157, -0.01527614333, -0.02893796377, -0.00804614369, -0.01010110602, 0.01910413988, 0.03363296390, -0.01051214058, -0.00159205310, -0.00023207744, 0.03359540924, -0.00396004831, -0.01657124609, -0.00329535664, -0.00993633829, -0.00217520492, -0.01720500551, -0.00851802994, -0.00360288308, 0.01311927848, -0.02230051532, -0.01161824726, 0.02339971066, -0.01021530665, 0.01004208438, 0.00878180098, -0.02349221334, 0.00390519295, 0.01821190119, -0.01701753959, 0.00404469110, -0.00945737306, -0.00397342071, 0.00682873838, -0.01041302085, -0.02248267643, 0.00900091790, -0.00894764718, -0.00820809882, -0.01542835496, 0.00721508916, -0.01699204370, 0.00120642793, -0.00948998611, -0.00775587372, 0.00649203686, 0.00431037322, -0.03603273258, -0.00489010103, 0.02377370000, 0.00515362574, -0.00775327720, -0.01313504949, -0.00388857303, 0.02650030889, -0.02015088499, -0.00142740784, 0.01680970564, 0.02231012285, -0.01603198610, 0.00494412892, -0.01198972762, 0.01967948489, -0.00855556782, 0.00070811529, -0.00579831190, -0.00690276083, 0.01405762136, -0.02183321118, 0.00020720089, 0.00286894711, -0.01394524425, 0.02599851787, 0.03628851473, 0.00454275822, -0.01025999431, 0.02198758908, 0.00508521264, 0.01590162702, 0.01329133753, 0.04387167469, 0.00614724262, -0.03269089386, -0.03032134473, 0.00989230908, 0.00454725092, -0.01546302531, -0.00115949335, 0.01885508746, -0.01831847616, 0.00857926067, -0.01504917257, 0.04126686975, -0.01673664525, -0.02661424689, 0.02197226509, -0.02191505395, -0.02449848875, 0.00613526581, -0.00636072457, 0.01049317792, 0.02853527665, 0.01045814436, 0.01381258294, 0.01406194828, 0.00745030493, 0.00071607274, -0.00754797272, -0.02085119486, 0.01710129157, 0.00365518732, 0.01147049759, -0.02377983555, -0.01681615785, -0.00624076696, -0.01432313863, -0.00440978818, 0.00504243001, -0.02998773567, -0.01255475823, -0.00007667486, 0.01157365646, 0.02502186410, 0.00242790906, -0.00352876517, -0.02388275787, -0.02860449627, 0.00284998771, 0.00822957326, 0.01440906804, 0.01576205157, -0.00366708729, 0.00749622844, -0.00632528262, -0.02380045131, -0.00754036941, -0.01653615944, 0.01330369618, 0.00041989796, -0.00462842174, -0.03430911154, 0.02103645168, -0.00847817771, 0.00606673909, 0.03648341447, 0.00904310774, -0.00120683480, -0.00686185760, -0.02715068310, -0.00519508217, -0.02247299068, -0.01155705471, 0.00771977846, 0.01510320511, -0.01068845671, -0.00953864492, 0.00811018329, 0.01034783665, 0.01426638663, -0.01791463792, -0.02204748243, 0.01690854877, 0.03930343315, 0.00514364988, 0.01916890033, 0.01180144027, -0.02717948705, 0.01064959541, 0.01969906501, 0.00917069521, 0.00714532752, 0.01531825028, 0.02382929064, 0.01004829630, 0.00550210476, -0.00264957873, 0.04287078232, 0.01468950231, 0.02074042894, 0.00331017771, 0.00777301472, 0.01684551872, -0.00604732893, -0.00133487792, 0.01058961637, 0.06457631290, 0.01992650516, 0.01682431810, 0.01026292052, -0.02440243028, 0.02148027159, -0.02730664611, -0.00516048772, -0.01513335295, -0.01071854867, -0.02020977065, -0.00859253667, 0.00178307202, -0.01360761933, 0.02487956174, 0.02196169831, 0.00658099353, 0.00306600053, 0.00564955501, 0.02401952818, 0.01088580210, 0.01193416864, -0.00694628246, 0.01569552347, -0.00704266876, -0.00629611406, 0.01880176924, 0.00998609327, 0.01712304354, 0.03408027440, -0.01963315718, 0.01802791655, 0.02911594138, 0.03369954601, 0.00178943400, 0.00077188108, -0.01523017976, 0.01828749105, 0.01100280788, -0.02001287043, 0.01296781376, 0.00518139079, 0.01560609136, -0.04771933705, 0.00597974751, -0.00003442750, -0.01353347581, 0.00229762564, -0.00383697730, 0.00383326970, -0.02911786363, -0.01748600043, 0.03187172860, -0.00931790750, 0.00019731978, -0.00452287681, -0.01542660501, -0.01301624812, 0.02443793416, 0.01434339210, 0.01383554004, 0.00178105291, 0.00478510791, -0.01573603787, 0.01937956922, 0.02642047219, 0.00636313995, 0.02697417513, -0.01753121614, 0.00119734462, 0.01309650950, -0.01026947331, -0.01254834794, -0.00513111008, -0.03618074581, 0.01434169058, 0.00599186821, -0.00629296200, -0.01089642663, -0.01233775727, 0.00665316451, 0.00538747292, -0.00643785670, -0.01604049280, -0.03599848971, -0.02414876223, 0.01871818118, -0.00696731359, 0.00029329350, -0.00169160310, -0.00765565876, -0.00783574488, 0.00780482870, -0.02639468759, 0.01044999715, -0.00331662851, 0.01433796436, 0.00193841849, 0.02897328883, 0.01436154172, 0.02789076045, -0.00088155549, 0.02000147849, 0.03303549439, 0.03260295093, 0.03002617508, 0.01116704196, -0.03369238228, -0.02532995865, -0.01944215223, -0.00368854171, -0.01164544746, -0.01060877647, 0.02496598847, -0.01326390915, 0.01275545452, 0.00766746141, -0.02033764869, 0.00745890196, 0.01167787239, -0.00296451570, -0.01902251132, -0.00336273341, -0.01412491314, -0.01078780554, -0.00912449788, 0.02095322683, 0.00156109314, -0.01016066223, -0.00138005777, 0.01281724125, -0.00193759287, -0.01142541692, -0.03131876886, 0.00046326104, 0.00155299366, -0.00189585704, -0.00155047327, 0.02868860215, 0.01028605644, -0.00469115004, 0.00513577834, 0.00617328007, 0.02442737296, -0.04471966252, 0.00538038369, -0.04131367058, -0.02050832473, -0.00199228618, -0.02241312712, -0.04091744125, -0.00276179030, -0.01506686397, 0.01575905085, 0.00636322331, -0.03394279256, -0.00530689023, -0.00055940123, 0.00166302617, -0.00090490852, 0.01356657501, 0.02493723296, -0.01042237226, -0.02043623105, -0.01032167673, -0.01804935560, 0.03001417220, -0.00817584246, -0.03001073375, 0.00301008020, 0.01458077505, -0.01183220651, -0.01308436505, -0.00022290088, -0.01259543281, 0.00656141760, -0.00751382671, -0.02602719516, -0.00523929670, 0.03599324450, 0.02611553483, 0.01250737906, 0.00256188842, -0.01684295200, -0.00885541737, 0.00162796490, -0.00699898135, -0.02423008904, 0.00294521404, 0.02181584761, 0.01633677445, 0.02298340015, 0.00711382926, -0.02789031900, 0.00162362936, -0.00221656729, 0.01496867370, 0.00246686372, -0.00552813243, -0.00454818085, 0.02047829702, 0.04316924140, -0.01574920863, 0.02590374276, 0.02720868774, 0.01751805097, 0.03206459805, 0.03832857311, 0.00069058174, 0.00648757769, 0.00922567025, 0.00910440274, 0.00262255827, 0.00561817270, 0.04449257627, -0.01798622496, 0.00888537150, 0.01195943821, 0.02963586710, 0.00425910950, -0.01279257052, 0.01179924328, -0.01134151313, 0.00716857566, -0.02183869481, -0.01549772173, 0.02321794629, -0.01017360203, -0.02412190661, -0.01552909613, -0.01683919504, 0.00114998629, 0.02445747890, -0.00465150131, -0.00003060373, 0.02560741268, -0.00760132959, 0.00319698430, 0.03493281826, 0.03085339069, 0.01333707478, 0.03747946769, 0.00014442136, -0.02417609468, 0.01905918866, 0.02230404504, 0.01707904786, 0.01431095134, -0.01321849972, 0.02274712920, -0.00138797751, 0.01723033935, 0.02653728798, 0.00147734070, 0.01870600320, 0.04603497311, 0.01237497199, 0.01016370393, 0.03375246376, -0.00474097067, 0.00702044321, 0.00543567631, 0.01354314294, 0.05093885213, -0.02063123696, 0.00690253498, -0.00908783264, -0.02565778419, -0.03443153948, -0.00985752884, -0.00084498897, -0.01791834086, -0.00593649410, 0.00582553539, 0.00774242543, -0.01794083044, -0.01307137311, -0.00195589219, 0.01143301930, -0.01251268759, 0.00521181151, 0.00107000826, -0.00142307975, -0.01692612842, -0.00267151091, -0.00346719613, 0.03483717516, 0.00231540203, 0.01749385335, -0.00807172153, -0.03684558719, -0.00136223389, 0.00801271200, 0.00384263368, -0.00529249804, 0.01100800373, -0.00383234466, 0.00104080746, 0.00193502917, 0.01007185131, -0.03432622179, 0.00488108676, -0.02234077081, -0.00211452367, -0.00798830949, -0.01071587764, 0.01342192851, -0.01431602892, -0.00915061869, 0.00016550720, 0.01302223746, 0.02300944552, 0.03336923942, -0.00540155359, -0.01276384015, 0.01211421750, 0.01080480032, 0.02263723314, 0.00352199376, 0.00114361569, 0.01408658829, 0.02940255776, 0.00482530566, -0.00025005080, 0.01498576626, -0.02259513363, 0.00010516867, 0.01430990268, -0.00201750034, 0.04018534347, -0.00858550239, 0.02651673928, 0.02178278007, 0.01845346391, -0.00847543124, -0.00139681075, -0.00026967004, -0.00758090522, 0.02566631511, 0.01112877019, 0.00103407772, -0.01061920356, -0.03514884785, -0.01324758306, -0.01079146378, -0.03005439416, 0.00030604657, 0.03849268332, -0.01674978435, 0.04343383014, 0.02276789024, -0.03371879831, 0.01782277972, -0.01240856107, -0.00829213392, 0.01010459289, 0.03176313639, 0.02183244377, 0.02936928719, 0.01163395960, 0.02081958950, 0.00359618617, -0.00084396335, 0.00064672000, -0.00956751592, 0.01542768348, 0.01697733440, -0.00885686558, 0.00446900865, 0.00869672652, 0.03901746497, 0.00893626455, 0.01717616431, -0.00399495615, -0.01083507668, -0.00858232193, 0.02043977007, 0.01082516462, -0.01620849408, -0.01217742078, -0.01675247401, 0.00506748492, 0.04271494597, 0.03256341442, 0.01677018590, 0.00483815745, -0.02334882133, -0.00413678866, -0.00358272018, 0.00962286908, 0.00232314458, -0.00618568482, 0.01703254879, -0.01025893167, 0.01285821013, 0.01367391273, -0.04399285465, -0.01150819939, -0.01009183191, 0.01649496518, -0.02072510123, 0.01298313495, 0.03289199620, 0.02392772771, 0.00508396327, 0.00551259844, -0.01071536168, 0.01360043231, 0.01355098374, 0.01174811460, -0.03048070706, 0.01323538646, 0.03408004716, 0.03857567161, 0.01483393461, -0.00084420899, -0.01301346906, -0.01770580560, 0.01891624928, 0.03715382144, -0.03834978491, 0.01624790020, 0.01276614424, 0.03241126612, 0.00710691512, 0.01199282613, -0.02257134393, 0.01434103306, 0.02172982134, 0.00472982042, 0.04528236762, 0.01791055501, 0.00843755528, 0.02601771429, 0.02216070890, -0.04528942704, -0.01064856164, -0.03236252069, 0.00274137920, -0.02363562770, 0.00382748921, -0.00180454273, 0.02705043554, 0.02048769593, 0.00555553939, 0.00566781731, 0.02951854467, 0.01411577314, 0.00343142031, -0.01204968430, -0.02894429676, 0.00049287826, 0.02557594702, 0.00792149268, 0.01407117955, -0.07382222265, 0.01427978557, 0.01276223641, -0.00077118026, 0.00706322817, 0.00329126604, 0.01648217626, 0.01804184914, -0.04550336301, 0.00095461938, 0.00647305930, 0.03363917023, -0.01300415210, -0.00185282435, -0.01489000488, 0.01255191024, -0.03382370248, -0.01187577005, -0.00415057968, 0.00971070398, -0.01968935877, 0.00795161538, -0.01874357462, -0.00908748712, -0.00545653608, 0.00125746103, -0.00027244259, -0.01957502030, 0.00015104748, -0.01722890884, -0.00074121519, -0.02506240085, 0.01146516390, -0.03970223665, -0.00697664684, -0.04914219677, -0.01609297097, -0.04252390936, -0.02080159262, 0.01029481273, 0.03434547409, 0.03907495737, -0.02912865579, -0.00444047339, -0.00234210258, -0.04604448751, -0.02158775926, 0.00987097714, 0.01832634583, 0.01833805814, 0.02619531564, -0.00940244365, 0.00405974081, 0.00828996021, 0.00344817247, 0.00216761325, -0.00668468792, -0.02162509598, 0.00746672414, 0.06015064940, -0.02575096302, -0.02524432167, 0.00532133551, 0.02256471850, -0.01538075786, -0.01232272759, 0.01177099347, -0.01110880636, 0.02648137137, 0.00567070628, 0.01048178412, -0.03132366017, 0.00063203764, 0.01688181423, -0.00964104012, 0.01251476072, -0.01765696332, 0.03744453192, -0.00268321158, 0.00099007320, -0.01601134427, -0.03271162882, -0.01291072741, -0.03328973427, -0.00423441455, 0.00077290472, 0.00949023291, 0.01739018038, 0.00601482857, -0.00931771938, 0.00189674622, 0.00763111282, 0.01068267412, 0.01773154363, -0.01750592329, 0.02209151350, 0.02275007591, 0.00710060447, 0.02049676701, -0.00769477990, -0.02675469220, 0.00199971674, -0.00593510689, 0.00881509390, -0.02393640392, 0.01639977098, -0.00865918212, -0.02501424216, 0.03604520112, 0.01122096274, -0.02359709516, -0.00623739744, 0.02346218377, -0.00366843771, 0.00686042523, -0.00452307984, 0.00512268115, 0.00589558808, -0.01763018407, -0.03912707418, -0.00240444252, -0.01976639219, 0.01102458779, 0.03263152763, -0.03801081330, 0.01481806021, -0.00453550275, -0.00960647594, 0.02788479067, -0.01021766383, 0.01444461755, 0.01531593967, -0.00089579704, -0.01754581928, -0.03678169847, 0.00357432640, 0.00423977431, 0.00323548261, -0.00292696012, -0.01888100989, -0.02059830911, 0.02975353226, -0.00045569031, -0.01404390298, 0.04595996439, 0.00279262569, 0.00622559525, -0.00079932297, 0.00958448462, -0.01770448685, 0.00397151383, -0.02058115229, -0.01453516446, 0.00534824049, -0.00402979786, 0.02894755453, 0.03852497786, -0.00717564113, 0.00720178057, -0.02032640390, -0.01745389029, -0.02024267614, -0.00754556386, 0.01333343424, 0.02478506044, 0.00533176027, 0.00719663594, -0.01388511620, -0.00849485584, -0.00218309555, -0.00463619735, -0.00783770066, -0.00798121747, -0.01070426311, 0.00636498071, -0.03002917022, -0.01206460223, 0.02827533707, 0.06161060557, -0.01401699148, 0.01641061716, 0.00678627379, 0.02126274072, -0.00882151723, -0.01084474381, 0.01518362854, 0.02300231904, 0.02103745937, -0.01049743406, -0.00474472810, -0.01148431841, 0.00701969443, 0.01172625739, 0.01484145224, 0.01751387678, -0.01094920747, -0.02936026081, 0.01253986824, 0.04649825394, -0.01649184152, 0.01523670554, 0.00057069957, -0.02589495666, 0.00626336364, -0.00245775282, -0.00139961764, 0.04133069515, -0.01733084954, -0.00343159516, 0.00706501585, 0.02022234164, 0.02212180570, -0.00242165499, -0.00217777677, -0.00798902195, 0.02431200258, -0.03772175312, -0.02586218342, 0.00329079502, 0.01118703652, 0.01330372319, -0.03091506474, -0.00206351373, 0.00760585442, -0.01889307797, 0.00231869798, -0.03964331746, 0.02057120390, 0.00394588336, 0.02169884183, -0.00888371281, 0.01708129048, -0.00083943177, 0.01289754920, -0.01793376356, -0.00776196923, 0.02832579054, 0.00278570806, -0.03634281829, -0.02887529694, -0.02757515758, -0.00315985642, 0.00970403105, 0.01862221956, 0.00606072880, -0.02482550032, -0.01154809166, 0.00831510406, -0.01065127924, -0.00726854801, 0.00828464516, -0.00159816735, -0.01729615219, -0.01669073664, 0.02541686222, -0.00914295763, -0.00354148215, -0.00158436666, 0.04041890055, 0.01914189756, 0.01709128916, 0.02699663118, 0.00599982683, 0.01764817163, -0.00393447094, -0.02068912983, -0.00168519281, 0.00011117244, -0.03334944695, -0.00164507097, 0.01089717913, 0.02485060692, 0.02654486522, 0.02491626143, -0.00428557117, -0.00150325568, 0.00244236551, -0.04219127446, -0.01463175844, 0.00080689881, -0.00763540249, -0.01711023599, 0.01098198444, 0.01885038428, 0.01016410440, -0.01001827605, 0.01181657240, -0.02153684571, -0.01635239460, 0.00619359408, -0.01769443974, 0.01554429810, 0.01151946560, 0.00764614716, -0.00672327681, -0.00856338441, -0.00524437428, 0.00882567745, 0.00590263493, 0.01955119893, 0.01718501374, 0.01083862409, -0.00783322006, -0.01916709915, -0.00041084504, 0.00305876881, -0.00701358076, 0.00425899215, 0.01975870132, 0.02256777324, -0.01356237754, 0.00886638928, 0.00074247131, 0.00896274857, -0.00563794049, -0.00806956738, -0.00365390163, -0.03078764677, 0.03643757105, -0.02301685140, 0.02246735618, 0.00497700600, 0.00430149911, -0.00077294488, 0.01102603227, -0.02333770134, -0.02260069363, -0.03447573259, 0.03377049416, -0.02425258979, -0.01538052037, -0.01782733388, -0.00865171943, -0.00178883551, -0.02737107314, 0.01715583354, 0.01653539389, 0.01080222148, -0.01087781414, 0.01770535856, -0.01654847898, 0.02127896622, 0.00602613389, -0.01388403028, -0.01047538966, -0.02023228444, -0.00176387234, -0.00904744305, 0.02108058706, 0.00197325484, 0.00231915643, 0.00457107462, -0.03970832378, 0.01167749427, 0.01286694501, -0.01876908168, -0.01570569165, -0.01251483150, -0.00272215251, 0.00086089980, -0.00921378843, 0.01905865408, 0.00419756863, 0.01061387360, -0.01663327217, 0.02451960556, 0.01544108428, -0.00782202743, 0.00683148857, -0.04337460548, 0.02664095722, -0.01794556156, -0.01872376166, -0.02996100858, 0.01669420861, -0.03814674169, 0.03683753312, -0.00650730636, 0.00364674488, 0.01031018049, -0.01466429606, -0.01632100716, 0.00490398332, -0.03163167089, -0.01684876531, 0.02595812269, -0.01170377620, 0.01155219879, -0.00358769763, -0.00275952043, -0.00549929496, -0.01906172559, -0.00551513210, 0.00717986189, -0.00369328214, -0.02612907067, -0.00621974049, -0.01881525293, 0.01978037506, 0.01347150654, 0.02092911489, -0.02032697201, 0.02035733499, -0.01225612033, 0.00543465419, -0.00667296164, 0.00727232313, -0.01974250749, 0.01415870618, -0.00045478204, -0.03553505614, -0.00179109955, -0.02625942044, 0.02215892449, -0.00235201023, -0.00857647136, -0.02499951422, 0.01167246513, -0.00890443102, 0.01655301824, -0.01245692372, 0.02436225861, 0.00714188535, -0.01853137277, -0.01498208288, 0.01349250693, -0.03580529615, -0.01625313982, -0.00480987038, 0.01471681334, -0.00107070990, -0.00536316680, -0.01711360179, 0.02115258947, -0.00851232745, 0.01896207035, 0.01609198004, -0.01108284667, -0.00047628430, -0.00148255983, 0.03120273538, -0.02566256374, -0.00159898761, 0.00444431603, 0.01575971581, 0.00346519286, -0.04089105502, -0.01659479737, -0.01013430022, -0.01936743036, -0.01717115939, 0.00263483846, 0.02328617498, -0.02099859156, 0.00622164179, 0.01287086494, -0.02523356490, -0.02230684087, -0.03340563178, -0.00263510924, -0.00393079314, -0.03948605061, -0.01382546127, 0.01558961812, -0.01040960010, 0.01733927056, 0.00728924247, -0.00341781788, -0.02463810332, -0.02904526703, 0.00903395843, -0.01401725784, 0.02124788053, 0.01189412735, 0.01128626335, -0.03307685256, -0.02195295505, -0.00468605803, -0.00585091813, -0.01366348192, -0.00168721541, 0.01576046646, 0.01968979463, -0.00492620189, -0.00819180347, 0.01186440792, -0.00859345775, 0.01047927886, -0.00842289440, 0.01088727172, 0.03960285708, -0.00961863343, -0.00362600759, -0.00159818889, -0.02704294957, 0.01749947481, 0.01009863988, -0.01923677698, -0.01974621788, -0.00764266774, 0.02359011956, -0.00155093241, 0.03012913652, -0.00932343490, 0.01851909608, 0.00459943525, -0.01153916214, -0.01258991845, -0.00364311691, -0.00464038225, -0.00185735489, -0.01741034351, -0.01928241551, 0.01197638549, 0.01622391865, -0.02994037978, 0.01286291517, -0.02365460992, -0.02659575082, -0.00433228258, -0.01764924452, 0.03546182066, -0.01974274218, 0.00923448522, -0.00715049170, 0.01529198047, 0.00898979791, -0.02274269424, -0.00203132932, 0.01962457411, 0.01505153812, -0.00169212930, -0.01848034188, 0.00188042363, -0.03021226823, -0.00454227068, -0.01626314409, -0.00471747760, 0.00434830692, 0.00529598631, 0.01876791194, -0.00059492438, -0.00297677470, -0.00160588976, -0.01921799406, -0.02747541107, -0.02498379909, -0.00136003853, -0.00171526812, 0.01546523720, -0.01847268268, -0.02624520659, 0.00482317526, -0.02371570468, -0.02371537499, -0.00518650329, -0.00142903812, 0.00447865948, -0.01004546322, -0.02381651476, 0.00307368906, 0.01797384955, -0.03692391142, -0.04394723848, -0.00341990381, -0.02976739407, -0.03062532470, -0.01060162205, -0.03196498379, 0.01398721337, -0.02765364572, -0.00194922369, -0.01511709765, -0.01553987898, -0.01788652502, -0.02515774593, -0.00778930727, -0.04709692299, -0.01646070927, 0.01035938971, -0.00719096977, 0.03138811141, -0.01436708588, -0.01519360393, -0.02204906568, 0.00666751247, -0.01539465506, -0.00239386479, -0.01942287013, 0.00599882985, 0.00975094549, 0.01533421129, -0.01684969477, 0.01982835308, -0.02419239283, 0.02710829489, -0.02763614245, -0.01046639960, -0.02699486911, 0.00502047874, -0.00310932007, 0.01763366163, 0.01279822364, 0.01036296785, -0.01924435422, 0.02235279232, -0.01360290777, 0.00451968145, -0.01686552539, -0.01427382883, 0.00094139809, 0.00238361815, 0.01233845856, -0.01207865123, 0.00374624343, -0.01124167815, -0.03636020049, 0.04156183451, -0.00089265453, 0.00322787371, -0.03982839733, -0.00217863172, -0.00065372384, -0.00783513393, -0.00106874807, -0.01171633787, 0.00942501053, -0.01942546293, -0.02002011612, -0.00952740572, -0.03384475037, 0.01465782709, -0.03438688070, -0.02619495057, -0.01970635727, -0.03504491970, -0.01954083890, -0.01532593183, -0.03598709777, -0.01414225902, -0.01358211227, -0.01802100986, -0.04628818482, -0.00329454197, -0.01597249135, -0.01566506550, -0.04761260003, -0.01415572502, 0.01378595736, -0.04241741076, 0.01486277301, -0.02558810450, -0.01149285585, -0.00471860263, -0.02634732984, -0.01350977272, 0.00549596595, -0.02241832390, -0.04145346582, -0.03857434541, 0.00515033724, -0.01311194897, 0.00955451187, 0.01295831520, -0.01801681146, -0.02444080450, 0.02651896700, 0.00759551208, 0.01729035005, 0.00111212162, -0.01710071228, -0.00462344894, 0.02332938462, -0.04851175845, -0.01099947654, 0.00182890054, 0.00629922934, -0.01705420949, -0.00944797508, -0.00411759550, -0.04306500405, -0.02633198537, -0.00199067406, -0.02568405680, 0.01328881457, 0.00562279765, -0.03868403658, -0.00945401937, -0.03488088772, -0.03967484459, 0.00949461199, -0.00029961206, -0.01050271560, -0.04010434076, -0.01790216193, 0.01973826438, -0.00588249648, -0.00352408458, -0.01585031487, 0.02123071253, -0.01923445985, 0.00502746925, 0.00569249596, -0.01146929991, -0.01791210845, -0.02609348670, -0.01505003683, 0.00793308672, -0.02483373322, -0.05084463581, -0.00426387647, 0.01033124886, 0.01610252261, 0.00808173977, 0.00370321376, -0.03244205564, -0.02564957552, -0.03205727786, -0.00892959442, -0.00594104175, 0.02324466035, -0.00412826054, 0.00589056965, 0.00328410463, -0.01671698689, 0.00334570603, 0.01962802187, -0.01196597703, -0.02099504322, -0.01298912894, -0.01661881618, 0.01207170449, -0.01170366630, -0.00622373773, 0.00222834107, 0.00706790015, -0.02910321206, -0.01313659828, 0.02441124246, -0.02429482341, -0.01396235637, -0.00863634609, 0.00967270415, -0.01896825060, -0.00802820176, -0.01418828033, -0.00760968681, -0.02567306906, -0.00720326323, 0.00722807040, 0.02490894869, -0.02480580285, 0.01586689055, -0.02000592835, -0.00148847816, -0.01484254189, -0.04391230643, -0.01572643220, -0.03423170745, -0.02139704674, 0.00673914701, 0.02547582239, -0.01660595089, -0.05540376157, 0.01097214408, 0.00739755249, 0.03469775990, 0.02695614845, -0.01577763259, -0.05618422478, -0.00862700213, -0.00385628780, -0.00393209606, 0.02276825160, -0.02637112699, 0.00273001683, -0.01970317960, -0.01610643789, -0.01278989576, -0.03220898658, 0.00071860931, 0.02792175487, -0.02618739195, -0.00366075803, -0.01252620667, -0.00096088578, 0.01622395776, -0.00328332512, -0.00083046686, -0.02279771119, -0.00029847270, 0.00151115051, 0.01834096387, -0.01469761226, 0.00274955155, -0.00053086947, -0.03029859252, 0.00227136305, 0.00727864495, -0.01523094065, -0.02358072065, -0.02831304260, -0.02363444120, 0.00109502487, -0.02794291452, 0.01730997488, -0.00346749090, 0.00557065848, -0.01223888900, -0.02652586251, 0.00185806956, -0.02356382459, 0.03626655415, -0.04048781469, 0.00849664118, 0.01291628182, 0.03775265068, -0.02090218849, -0.02357183397, -0.00230544643, 0.02596600354, 0.01105311792, 0.00081216823, 0.00401388155, -0.00379412482, 0.02239464968, -0.02671451867, -0.00082438230, -0.02009111643, -0.01711496152, -0.01095279865, -0.02758276835, -0.02065697312, 0.02450188249, -0.03951136395, 0.01289247163, 0.01169357821, 0.00576708233, -0.02067578584, 0.00357244839, -0.03505378962, 0.00785639510, 0.00833299384};
#endif

#endif
