//Numpy array shape [4095]
//Min -0.063987568021
//Max 0.051569044590
//Number of zeros 0

#ifndef B2_H_
#define B2_H_

#ifndef __SYNTHESIS__
q_batch_normalization_default_t b2[4095];
#else
q_batch_normalization_default_t b2[4095] = {0.01916648448, 0.00312188733, 0.00289158151, -0.00837985426, 0.01842025481, 0.00166668545, 0.00493635098, -0.05686414242, 0.00395851582, -0.01225660555, -0.01779679582, -0.00900008716, -0.01014915481, -0.01455520373, 0.00942352042, 0.01347015612, 0.00690538902, 0.00352154416, -0.00135093764, -0.01256806217, -0.03200503439, -0.01526411623, -0.00943665765, -0.01582799293, 0.03588150069, -0.01469685137, -0.02007734217, -0.04912237823, 0.00579634262, -0.00191533752, 0.01744251326, -0.03397341818, 0.01593676582, -0.03032951429, 0.03619388491, 0.03182625398, -0.01732653007, -0.02068699524, 0.00315158442, -0.03213878721, 0.01294097211, -0.00382128777, -0.00915385410, 0.00119551085, -0.02764899842, -0.00458538951, -0.01263789553, -0.01264223829, 0.04304596037, -0.00803639367, 0.02085810713, -0.02386525087, -0.01655069739, -0.01203611959, -0.01171502843, 0.03933447227, 0.03819104284, -0.00324427104, 0.01385861449, -0.00993720349, -0.02206190303, -0.03674048185, -0.02025952376, -0.03102894127, 0.00494841486, 0.01259812806, 0.01298645977, -0.00804041512, -0.02476663142, -0.01375973318, 0.00917936489, 0.01653665490, -0.00748428889, -0.00918406248, -0.00879263878, -0.01208947413, -0.01643674821, -0.01292215660, -0.02421732992, -0.00989588723, 0.01898913831, -0.02261018008, 0.01448870823, 0.02317095175, -0.00557992142, -0.00549391937, -0.00936932117, 0.00767249614, -0.00518592633, -0.00049518747, 0.02712844871, 0.03150372207, -0.02626879327, -0.01664151438, -0.01167789847, -0.02001888119, -0.00153370085, -0.00139138801, 0.00597467087, 0.00216214173, -0.00908752717, -0.01560651790, 0.00608812459, 0.02895936742, 0.02122333273, -0.03191920370, -0.01893815026, -0.02232067846, -0.02679941058, 0.02260210924, 0.02981721237, 0.00585140660, 0.01562326588, -0.00647933455, -0.02365008742, 0.00395319471, 0.02620556764, -0.01576252468, -0.00164303975, -0.00017024321, 0.00609605946, -0.00001268089, 0.02796269208, -0.04196453467, -0.00555184949, 0.00400157506, -0.01178779732, 0.00609349739, -0.01788747311, -0.00339964638, 0.02140225098, 0.03168441728, -0.01732918993, 0.02786703967, 0.00237956294, 0.02352428250, -0.02363279089, 0.00691963825, -0.03150469437, 0.00059680664, 0.01318546198, 0.02489091083, -0.00935663655, -0.01420679502, 0.02674618922, 0.02027660795, 0.00739011448, 0.02558189444, -0.01678180136, 0.01581382751, 0.01319719758, 0.01316447742, -0.00205712346, -0.05207026005, -0.02350832149, 0.00753735891, 0.01589345746, -0.01600521803, -0.00145594927, 0.01124414243, -0.00252723508, -0.00798538979, -0.02463264577, 0.03267572820, -0.01406373456, 0.03708972409, -0.03242317587, 0.01752754673, 0.01216859184, -0.01043684408, 0.04330710322, 0.03879126534, 0.02344975807, 0.01798070408, -0.03770850226, -0.01402192842, 0.01132649742, -0.03443217650, 0.00556987105, 0.00784246810, 0.00696744304, 0.00048411824, 0.03976029158, 0.03096383438, -0.02166340686, 0.02794573829, -0.03932978213, 0.01642183028, -0.00262666610, -0.00249454007, 0.01466193143, 0.03115128167, -0.02341375872, 0.03569789976, 0.00891404692, 0.00729807187, -0.01865369640, -0.02270335145, 0.03247521445, 0.02262450196, -0.02860984206, 0.02745745704, 0.00101964781, 0.02808352560, -0.00431142095, 0.00141104404, 0.00284916605, -0.01435240451, -0.00541292038, -0.01371220592, 0.01957016625, 0.00874410011, -0.03333788365, 0.00513701234, 0.02427338436, 0.01534361485, -0.02691309154, 0.03978418931, 0.01369786169, 0.00600672048, 0.02709156089, -0.00579588162, -0.03328502551, -0.03538332880, 0.00079467613, -0.03029931895, 0.03870074451, 0.01628483459, 0.03526348248, -0.01268143579, -0.00492036063, -0.00642956886, 0.01961554214, 0.02316841856, -0.03462874144, -0.01223505381, 0.00748091377, -0.02724698745, 0.02557843365, -0.01772210933, -0.00326986169, -0.01984989457, 0.01908959076, 0.00899831764, -0.00435982086, -0.02243357897, 0.03313015029, 0.00117009506, -0.02044795081, -0.00193661731, -0.00904437900, 0.00413856097, 0.00766765885, -0.00976706389, -0.00795452762, -0.03237796947, -0.03235702217, -0.00640810886, 0.02884251066, 0.01855478808, -0.01115527656, 0.03093283251, -0.02571092732, -0.03244875744, 0.01324883569, -0.02068341896, -0.01151544414, -0.01699385792, -0.00295899529, 0.02141058631, 0.01319298893, 0.02695046738, -0.00753556704, -0.01879793964, -0.01340361498, -0.02827043086, -0.00448589399, 0.01845502853, 0.01537776738, 0.03173192218, 0.00010821130, 0.00229742005, 0.01236147620, -0.02376738191, 0.01488543395, 0.00237792078, 0.00602943823, -0.05031818151, -0.00768384011, -0.03479449451, -0.02122237161, 0.00092308689, -0.02151090838, -0.03923759982, 0.00103704259, -0.00989641249, 0.00547847385, -0.01651503146, 0.02420013770, -0.00583430380, 0.02338644303, 0.03206640854, -0.04687730595, 0.02224282362, -0.00559961516, -0.03127348050, 0.00380106177, -0.00433893222, -0.00212182710, -0.00832212344, 0.01106823701, -0.00206957618, -0.00863640010, 0.01823711023, -0.00569007080, -0.00275172200, 0.02576030418, 0.01835112646, 0.01872422732, -0.03377332166, 0.01246061269, -0.01352764294, 0.02430302836, 0.00609832630, -0.00546144648, -0.02507355809, 0.02140418813, -0.01085376367, 0.00044269580, 0.00373148103, 0.01721572876, -0.00461344048, -0.02709027380, 0.00056575891, 0.01715330593, 0.00949347951, -0.00380891748, 0.02513441071, 0.01104300097, -0.03810926899, -0.01833118498, -0.03376846015, 0.01347750984, -0.00696395617, -0.04581549391, 0.02489395812, 0.00172123266, 0.00027017453, -0.00627558306, -0.00492109638, 0.00980854686, 0.01297162846, 0.02338384092, -0.00424554339, -0.00376863242, 0.01818978041, 0.00717213005, -0.00821504463, 0.00885390863, 0.01235525589, 0.01592963934, -0.00469299406, -0.02482811734, -0.00635036919, 0.00867262203, -0.03381003439, -0.02737557516, 0.00653450564, 0.01729979552, 0.02152801119, 0.01034788974, -0.03019330278, 0.00706521329, -0.02947482280, -0.03052434698, -0.01224186644, 0.04689350352, 0.00725948485, 0.03751158342, -0.02300043218, 0.03554388508, 0.03731573001, -0.01451896038, 0.04822742939, -0.00831382815, -0.03073535115, 0.01116012130, -0.00246993941, 0.00866210833, 0.00443972507, -0.02475145087, -0.02331751399, -0.02888605557, -0.04144410044, 0.00550474599, -0.01674811915, -0.03892100602, -0.02793797478, -0.01508873980, -0.02347827703, 0.02070396952, 0.00068466645, 0.01576947421, -0.00013794581, -0.03311463818, 0.02162067220, -0.00557582779, -0.01292714663, 0.00720296567, -0.01105601154, 0.01901046000, -0.01284874231, -0.01723351888, -0.00864322204, 0.02004714683, 0.01913246326, 0.01805383712, -0.00295061921, 0.01374530420, -0.03270235658, 0.02552243881, -0.00441957451, -0.02585557476, -0.01850919053, 0.00244420161, -0.00485517830, -0.02357776836, 0.00241839513, -0.01268838253, -0.00164420158, -0.01044530328, -0.01470220089, 0.01650959440, -0.01037180983, 0.00128311175, 0.01334590465, -0.01487210672, -0.03882951289, 0.02348423377, -0.01675830968, -0.01426478755, 0.03808505833, 0.03761982173, -0.02515143156, 0.00323499134, -0.05748627707, 0.01882220805, -0.05909777805, 0.00770027097, -0.00563051365, -0.03842860088, -0.02888879552, -0.03808771074, 0.01630516723, 0.03231243789, 0.01766951010, 0.02611186914, 0.00967723690, -0.00676372461, -0.01302372944, -0.02050544880, 0.00897874404, 0.02591087297, 0.00623993948, -0.01548618264, -0.02625728026, -0.01097051054, -0.01819653437, -0.00240995362, 0.00306726643, 0.02467694506, 0.02419533022, -0.00797367282, 0.01458205748, 0.01482406817, -0.02425645292, -0.01370554511, -0.01053118892, -0.02687923983, -0.02464163303, 0.02473294362, -0.03287394345, 0.02066680789, 0.01486006379, 0.03523888439, 0.02400004677, -0.01496822853, 0.02453593723, 0.00264659710, 0.02509891614, -0.01282802131, 0.00521089416, 0.02006956004, 0.02943997458, 0.02026768960, 0.01571021974, 0.00944776181, -0.03703892231, -0.00957215577, 0.01170460507, -0.02702277899, -0.00669768220, -0.00222240947, 0.04274682701, -0.01653815061, -0.01806128398, 0.05051343143, -0.01859300025, -0.02042800747, -0.02397458628, -0.00448524952, 0.01124094054, -0.00703270454, 0.02964752913, 0.00861214660, -0.00977818575, -0.00096193491, -0.03803195804, -0.03176242858, 0.00800925959, 0.01458143909, 0.00568655413, 0.00651041977, -0.02566761337, -0.00924451929, 0.00642966386, -0.00219487865, 0.01869267412, 0.00420882460, 0.02765911072, 0.00694536697, -0.00797605235, -0.00503774919, 0.01569389552, 0.00952434074, 0.00389930652, 0.03182522953, 0.00968866795, -0.03088526614, -0.02013137005, -0.04506557062, -0.04320962355, -0.00819085725, 0.02634977177, 0.00442244206, 0.03070817888, 0.01122681238, -0.00122041348, 0.02210162021, -0.01200287417, -0.00697039953, -0.03752062470, 0.00590678491, -0.02984954603, 0.00740110269, -0.00838256441, 0.00632687099, 0.00540479645, 0.01508484222, -0.03483650461, -0.00708231796, -0.02219376899, 0.00291120727, -0.00353022502, 0.00886889361, -0.00620320998, -0.00779005606, 0.00407480542, -0.01777768880, -0.00370124867, 0.00564215705, -0.01909254491, -0.00181377679, -0.02090452053, -0.01613000594, -0.01475839317, -0.03060132451, 0.00595545210, -0.02333886176, -0.00295043667, 0.00818623044, -0.02614131011, 0.03077876754, -0.02958361804, -0.03969351202, 0.01958430186, 0.01382739842, -0.00345601328, -0.02862740681, 0.03374179825, 0.01879862510, 0.03127110377, -0.01314442419, -0.00022881303, 0.00087991985, 0.01834895834, 0.01702374779, 0.00939143077, -0.03474456072, -0.00671557710, 0.00227775890, 0.02377301641, 0.00135917612, -0.02219700068, -0.00207012659, 0.00405037822, -0.00732256845, 0.00779506145, 0.02185157500, 0.01403213572, 0.02730086818, 0.01003946457, 0.02601116709, 0.00362212583, 0.02821771801, -0.00499044312, -0.03428275138, 0.02241452783, -0.01525241602, -0.00446671294, -0.00771458307, -0.00247958233, 0.00817494188, 0.00523756072, -0.00812822487, 0.02852325514, 0.01543953456, 0.01578941010, -0.04686434567, 0.00280555617, 0.00250092149, 0.03021488711, -0.00032244716, -0.01320748217, 0.01820041798, -0.04507154226, 0.01333817188, 0.00521298731, 0.03434282914, 0.01170010585, -0.00625381619, -0.00528850080, -0.00653169770, -0.02565527149, -0.00548145734, -0.03215330467, -0.00555386394, -0.03665735200, 0.01436414383, 0.00222715270, -0.02075697109, 0.04211625829, 0.00884165242, 0.00038210675, 0.00725597655, -0.00074374117, -0.02216019854, -0.02001184598, -0.02849509008, 0.03196662664, -0.03092206270, -0.02040380053, -0.02537849173, -0.02902937308, -0.01424882840, -0.04161386192, -0.01917173527, -0.02302829549, -0.01287385263, -0.00833538081, 0.01597451791, -0.03378067538, -0.00258139987, -0.02986637689, -0.04149744287, -0.02432606556, -0.01031261124, 0.01017270051, 0.04636169598, 0.00537188398, -0.02978138439, -0.03328705579, -0.01421996392, -0.00810766872, -0.01126332581, -0.00875504781, 0.01868417487, -0.01619700156, -0.01325429417, -0.01548244432, -0.00576043315, 0.01128911413, -0.00942092296, -0.00951724034, -0.02381236851, -0.00655834703, 0.00810360909, 0.00073554926, -0.00577683793, 0.00771462917, -0.00851609372, -0.01428168360, -0.01053338684, -0.00649936171, 0.00035805278, 0.00036494175, -0.02191459388, -0.02260527574, -0.02720615268, 0.00983660482, -0.02231503651, -0.00846124906, -0.02793654427, 0.00271183904, -0.03651046008, -0.01154331677, -0.02698311582, -0.01993576251, 0.04077225551, -0.01122685801, 0.02233501151, 0.02561870217, 0.00322449487, 0.02952936664, 0.01854606718, 0.01197980531, -0.01949392818, -0.00226622494, 0.01020958088, -0.02300782129, 0.04014583677, -0.00471715722, 0.01010845788, 0.00751568284, 0.01829539798, -0.00376331294, 0.01413036231, -0.01023626886, -0.01093097031, -0.01752448641, -0.03163536265, -0.02130732127, -0.01215679385, 0.01837212220, -0.01203056052, -0.01768480428, 0.02507539839, 0.00313526415, -0.03403084725, -0.01509901695, -0.03245169669, -0.04177433625, -0.02692076378, -0.00852762349, -0.00140247587, -0.02455508150, -0.02693543211, 0.01314337458, 0.00284278952, 0.01386731677, 0.00656697899, -0.01765157096, -0.03705804422, -0.01456653047, 0.02005214989, 0.00472436240, 0.01136283390, -0.01734434068, 0.00372537132, -0.01298001688, -0.03173791245, -0.02895067632, -0.03807437420, -0.02285058238, 0.01760324836, -0.03500669077, 0.01215760596, -0.00518528093, 0.00352959242, 0.01465147920, 0.02157068066, 0.00327160023, -0.01000371110, -0.00764883077, -0.03883891553, -0.03551341593, 0.01289614290, 0.01559909526, -0.00376922078, 0.00070603378, 0.03798122704, -0.03148771450, 0.01598912105, -0.00051490427, 0.00920386612, 0.00827899016, -0.00638726912, -0.01149126515, 0.02467216365, -0.01781318150, -0.00988079049, 0.03376051039, -0.00639730040, 0.02307312749, 0.01966540515, -0.00408572005, -0.02210216969, 0.00811459310, -0.02156763896, 0.00904409587, -0.00346761663, -0.01379788015, 0.02361738123, -0.04426142573, -0.01388441212, -0.03554979712, 0.03821123019, 0.02797947079, -0.01025378332, -0.00554682175, 0.00282744411, 0.00254259328, -0.04706685990, -0.00318172062, -0.01275934838, -0.00194992346, 0.00171158218, -0.03773693740, 0.00131113222, 0.04040396214, -0.03305710852, 0.02117127553, -0.02863892168, -0.00314043183, -0.02277664095, -0.03963254392, -0.00279646087, -0.00845953822, -0.00061411504, -0.00894904230, -0.02579009533, -0.02029433846, -0.04923344404, 0.01231703907, 0.00277592544, -0.02809825353, -0.01514469087, -0.00100076362, 0.00703000277, -0.02781645581, 0.01386849489, -0.00262050889, -0.01714843512, -0.01382014528, -0.00610869285, 0.00547409616, 0.03197865933, 0.01231255103, 0.01141011342, 0.02286075056, 0.00331083057, 0.00681221765, 0.00561781693, 0.01461009309, -0.01554813795, -0.03280138969, -0.02847816423, -0.00145228789, -0.03062832728, -0.01761793531, -0.00263579935, 0.03087706678, 0.00974841416, -0.01188031863, -0.03273668140, -0.04185118154, 0.00015154947, 0.03601697460, 0.03060214967, -0.02448327094, -0.01582128555, 0.01064148173, 0.00869247038, -0.00239555794, -0.03058221005, -0.02352334186, -0.00097935018, -0.00378365908, 0.03689554706, 0.02904966846, -0.00409839349, -0.03058881126, -0.00929329358, -0.00900260732, -0.01046269480, -0.00454727560, -0.04039104283, -0.03047934361, 0.00776610384, 0.02910649590, -0.01103832200, 0.00961817987, 0.00146431907, -0.03155018762, -0.00439507747, -0.02885727957, -0.03379844874, -0.02014230564, -0.01957761124, 0.00173321157, 0.00241641235, -0.04321691394, 0.02286184765, 0.00442352239, -0.02292061225, -0.02825626172, -0.03470700979, -0.04809041321, -0.03431745619, 0.00730803702, 0.02121797949, 0.00522228470, 0.01591340080, -0.03274783120, -0.03089157492, -0.04195676744, -0.01811097190, -0.00252368627, -0.02309054881, -0.00907929894, -0.01773647964, -0.04810626060, -0.01311110519, 0.00630681403, -0.00912062172, -0.01123200543, -0.00953908823, -0.01338344533, -0.01940721273, 0.04658403620, -0.01967154071, -0.02412774973, -0.02626253664, -0.03823206201, 0.00358306244, -0.00898369774, -0.00205503940, -0.02087995410, 0.00372448913, -0.01489553414, -0.01571221277, 0.01523187198, -0.02068954892, 0.02710744552, -0.00133944466, -0.02455413714, -0.01421830617, 0.01719170809, 0.02603603527, -0.04292786866, -0.00431187358, 0.01753863879, -0.04199713841, -0.01754246466, 0.01343078539, -0.02372140810, -0.00810649432, -0.03008205816, -0.01690319553, -0.00871696230, 0.01138878334, -0.02506310120, -0.01098234020, 0.01002601348, -0.00040872768, -0.01844472624, -0.03209619969, -0.01326491125, 0.02915486880, -0.03389145434, -0.01090396941, 0.00481116865, 0.01102232374, -0.00184823177, 0.01784968376, -0.00352663221, -0.04476952553, 0.00261097634, -0.00186157133, -0.00410352834, -0.02742925286, -0.02722980268, -0.04712702334, 0.00219033123, 0.02009518072, -0.00509159081, -0.01088545658, 0.00909790210, -0.01371678803, -0.00734003121, -0.01115196105, -0.01668731496, -0.00763169257, -0.02338412404, -0.03558497131, -0.03376761824, 0.01649819314, 0.00064626802, 0.00364229549, -0.01861958019, -0.03956446052, 0.02215990610, -0.02497377992, 0.00915719196, -0.02058074810, -0.01615029946, -0.00823350623, -0.02120580338, -0.03428403661, -0.00277790125, -0.01436792593, -0.03103259206, -0.02829766273, 0.01665113680, -0.02281459793, 0.00233983435, -0.01286267582, -0.02497515641, -0.04303557798, -0.00362749957, -0.01987097785, 0.01767443866, 0.00371708814, -0.04579593614, -0.01158216782, 0.03458425775, -0.01367393509, 0.02442612872, -0.04127131775, -0.00682953838, -0.02400803566, -0.02677962184, -0.01476370357, -0.00139690191, 0.00987962727, -0.01201740839, -0.04321384430, 0.00572328689, -0.00030764425, 0.01555323880, 0.00297165755, -0.00424191868, 0.02734373882, -0.01362594031, -0.01521656848, -0.02869135328, 0.01797433756, 0.00195563957, -0.01352397818, 0.02358514071, -0.05536056310, -0.01678244583, 0.00264611188, 0.02705665305, -0.04350517318, -0.01822918281, -0.02333821729, -0.04540392384, -0.03527144343, -0.03125862777, 0.00256888941, -0.03391022235, -0.03887380660, -0.00829659961, 0.00531072263, 0.00655320380, -0.01394454855, 0.02006822452, -0.02165837027, -0.00702309608, -0.01851683483, -0.01767420955, -0.01891865581, 0.02806811035, 0.02828295343, 0.02087139711, -0.00403710920, 0.00654595997, 0.01012139209, -0.00274946238, 0.00439878926, 0.01650359109, -0.01317380369, -0.01057184022, 0.02422080562, -0.03449839354, 0.00065199891, -0.00059877988, -0.02292289585, -0.01180442236, -0.00721303932, 0.00448705256, 0.00309440959, 0.03296662495, -0.04017685354, 0.00794789474, -0.01289606281, 0.00314238109, 0.01556073781, -0.00209112465, -0.04245816916, 0.01284405775, 0.01467291079, 0.00444449112, -0.00082622562, 0.01521229558, -0.00567800412, 0.03281508386, -0.01085057110, -0.00265899394, -0.01168672647, -0.00429809932, -0.00918372907, 0.01115051098, -0.01907726750, -0.04147257656, 0.02748788707, -0.03158726543, 0.02159865201, -0.01113898121, 0.01402475033, -0.00130503043, -0.03214373440, 0.02664306387, 0.01495860331, 0.04048435390, -0.01919982582, -0.03403863683, -0.01471338421, -0.01204432547, -0.01346703153, -0.04120015353, 0.01341025252, 0.02285990492, 0.01746125706, -0.01220714953, -0.02462608181, 0.01295073889, -0.03447112814, 0.02629109100, -0.03029137664, -0.01531852409, 0.02882908657, -0.03957296908, -0.00300911209, -0.00593627524, -0.02558940649, 0.04053047672, 0.01498843264, -0.04553920776, 0.03762551770, -0.02402206510, -0.00918417890, 0.00721374247, 0.01504681725, -0.02193425223, 0.02875911072, -0.00862717256, -0.01382627245, 0.00556111708, -0.00031903991, -0.02949517407, -0.02334614657, 0.00424612127, 0.02635931224, 0.00932429172, -0.00152248237, -0.00658511324, -0.02803641558, -0.00722818356, 0.00961320102, -0.01154532377, -0.03359400854, -0.00832765363, -0.01784701273, -0.03083885834, -0.01522070356, -0.04529424384, 0.01028483361, -0.03394781053, -0.03357531503, -0.00351962075, 0.01259147096, -0.03759423643, 0.03442668542, -0.03580295295, -0.03227533028, 0.01495811343, 0.03178537637, 0.02816466242, 0.01212213561, -0.03333981708, -0.00143751502, 0.00475580618, 0.00547473272, 0.01888030954, -0.02914473228, -0.00590651110, -0.03401806206, -0.03365973383, -0.00804211292, 0.00659011677, -0.03410631418, -0.01244664285, -0.02529023029, -0.02432441153, -0.00672964472, -0.01350983791, 0.01031801663, 0.01383740827, -0.03605289757, -0.01892838813, -0.02777102217, 0.01226027030, -0.02799675614, -0.03517227620, -0.01619079709, 0.01470778603, 0.02515499666, -0.00767318625, 0.03587226197, -0.00668569421, -0.00045004487, -0.00232077809, -0.02487520874, 0.01506063715, -0.02189938352, -0.01268465072, 0.00255991891, 0.00711900182, -0.00763495732, 0.00755961007, 0.00563215325, 0.01455043815, -0.02831788175, -0.00488528376, -0.00172279007, -0.03798691183, 0.00034170691, -0.05271032453, -0.03644311801, -0.03112919070, 0.01937667653, 0.01475603227, -0.00069335301, 0.02421602607, 0.00102954358, -0.01068692282, 0.00506707095, -0.00555107975, -0.01885390468, -0.03074367344, -0.04896458983, -0.03784401715, 0.01288287342, 0.01552585140, -0.00588594284, 0.00475096656, 0.03988794237, -0.00293486193, -0.01147233509, -0.04045222327, 0.00005904841, -0.00411106786, 0.00550071336, 0.02886917256, -0.01386546716, 0.01209431607, -0.03682403266, 0.01101899240, -0.01775857620, 0.02971650660, 0.00726211444, 0.00291496515, -0.02517206222, 0.01529128850, 0.01694637723, -0.00713877054, -0.02296189219, -0.02091128565, 0.04242423549, -0.01729884744, 0.00462477282, 0.00260866340, -0.03573857620, -0.02893423662, -0.02379331179, -0.04690019041, -0.03945832327, -0.00053637451, -0.03246343881, 0.01800289378, -0.02523961291, -0.01265487261, -0.00759372115, -0.04467627034, -0.02614408359, 0.03370143846, -0.01316597126, 0.01423851028, 0.02574887127, 0.02519274689, -0.02382848598, -0.00667769229, -0.03231379390, -0.03176306933, -0.03782697022, 0.04278159142, 0.01974954456, -0.00109319738, -0.00010714727, -0.00458649080, -0.00901435129, 0.01537475921, 0.03707511351, 0.00555853918, 0.01053265389, 0.00458370987, 0.00565406913, -0.02801775746, -0.03627004474, 0.00365363806, -0.02298996225, -0.02432417497, 0.02060887031, -0.01560349762, -0.00007346272, -0.01309002191, -0.02082402259, -0.04399579018, 0.01003635582, -0.03903003410, 0.02573839948, -0.01347812545, 0.00585041009, -0.00309257116, -0.01867141761, -0.01369931828, -0.04000438377, -0.03153866902, 0.00406400580, -0.00317692431, -0.01618763804, 0.00931613054, -0.00389238424, 0.02716861293, 0.01678158529, -0.01050071325, -0.00217133947, -0.04027476534, -0.01712592877, 0.01516882144, -0.02002362162, -0.02039044350, -0.00948951393, -0.02155719325, 0.01008723490, -0.00088732940, -0.00670266803, -0.02480940148, -0.02890436910, -0.02051598206, 0.00613845605, -0.00434448570, -0.04789719731, -0.01889684051, -0.01564801857, 0.02807493880, -0.01038520038, -0.03282351047, 0.01113458164, -0.03024052829, 0.02440611273, -0.00095711509, -0.01339734159, -0.03873344511, -0.01022485271, -0.01208809949, -0.00478650630, -0.04228607193, -0.01684883982, -0.00873101875, 0.00625379570, -0.03236545995, -0.04284701496, -0.02281293459, -0.01601568237, -0.00034445594, 0.01189874578, -0.00889664143, -0.01975198835, 0.00627429504, 0.00980765373, 0.00559410034, -0.01223497093, -0.00003249058, -0.01866588183, -0.05267466232, -0.03713418916, 0.02769282088, 0.00012983056, 0.02054418437, -0.00586662674, -0.00378823350, -0.00916935131, 0.01266087219, 0.01734852418, -0.01543150097, 0.00157364656, 0.04149524495, -0.03132289276, 0.01767899282, 0.02740345895, 0.02576110885, -0.01008570567, -0.03130284697, -0.01074896380, -0.03074059263, -0.02531769872, -0.02122572623, -0.00122215319, 0.02230225317, 0.02235433273, 0.01206600294, 0.02902477607, -0.03170815110, -0.02276384644, 0.01898461580, -0.00623505050, 0.01519437507, 0.01712324098, -0.01176586188, 0.01209490094, -0.00190572767, 0.00189747754, 0.03321990371, 0.00133890484, -0.01760863140, -0.01907674596, -0.01906261593, -0.02295899764, 0.01786535606, -0.03593986481, -0.04787115380, -0.04078795016, 0.00067756465, 0.00005844887, -0.04880845919, 0.01582035795, -0.01914125495, -0.02243306674, -0.00308862142, -0.02948302403, -0.02553700283, -0.03094237298, 0.01283469144, -0.02102355286, -0.02577680536, -0.03728604689, -0.03412298486, -0.00865097623, 0.01446892694, -0.00128992775, -0.02405613475, -0.04476715624, 0.00759865437, -0.00862079673, -0.00714181270, 0.03002204187, -0.00841849484, -0.02400483750, -0.01484101266, -0.00441650115, 0.04293236881, 0.01845429093, -0.00196974771, -0.02703993022, 0.00787418056, 0.01522577181, -0.01476121880, -0.02284925058, -0.00622955896, -0.00687041134, -0.01371246949, 0.00462929904, -0.00967465248, -0.01979022473, -0.02049875818, 0.00206381362, 0.02706683427, -0.01440623496, -0.04642730579, -0.01136800461, 0.03483641520, -0.01723445579, 0.00373027986, -0.02539567649, -0.02049400657, 0.02792647853, -0.00242586900, 0.01628599688, 0.00469611119, -0.01176368631, 0.03151122481, -0.00812222529, -0.01918216236, -0.00398868369, 0.00369947776, 0.00110985525, 0.02059242502, -0.01201518998, -0.02562354878, 0.00080923410, -0.00468624383, -0.03965914249, -0.03205432743, -0.03105513379, -0.01646617241, 0.01654787362, 0.01359392237, 0.00696149748, -0.02050647698, -0.00611840654, -0.01386147365, -0.02571076714, 0.00798695255, 0.01877613366, 0.00074390665, 0.01433123089, -0.01826316491, 0.01883551851, 0.00226587174, -0.01625704020, -0.04399856552, -0.01713786647, -0.02737053484, -0.03078073636, -0.02879279479, -0.02958335541, 0.02402071282, -0.03056707792, -0.01280800626, -0.01171254553, 0.00309408293, 0.01028771512, 0.01007574424, -0.01663686149, -0.01114312187, 0.01624658704, 0.02856006660, 0.01807604358, -0.01411874220, -0.00948864780, -0.03716953471, 0.00271786749, 0.01155352406, 0.02864174172, 0.00301170303, -0.01034454070, 0.00603306759, 0.01298381947, 0.01026225742, -0.05216429383, -0.00527851004, -0.03080991283, -0.04046134651, -0.03075370751, -0.03550739586, -0.02389438637, 0.00675986568, 0.02080117725, 0.00380909815, 0.01945399866, -0.02017477900, -0.00769754825, -0.02615021914, 0.01834662259, 0.00196288712, -0.01500075869, -0.00469039567, 0.00964495540, -0.01412178203, 0.00539014209, 0.01092256699, -0.00499935122, 0.01386587508, -0.00753942039, -0.00731185032, -0.00983713940, 0.00463876454, -0.00529284310, -0.01376371738, -0.02267632820, 0.00091892155, -0.02627696283, -0.00149179844, 0.04825057089, -0.02301503159, -0.01264921762, 0.01250186190, 0.02981244028, -0.01265220065, 0.02721591480, 0.01505574118, -0.02101359703, 0.00435328763, 0.03967641294, -0.05624118820, 0.01991112344, -0.03252563998, 0.00737652695, -0.01506900787, 0.01082511153, 0.00757923443, -0.00773491198, -0.00247438857, 0.02408141643, -0.01542804949, -0.01732050069, 0.00519292336, -0.02348412946, 0.00964365900, -0.03528937697, 0.00376868388, -0.02600392327, 0.01047104038, 0.01078150608, 0.02348967642, -0.01983757131, -0.03950564563, -0.03300089389, 0.01307339966, -0.00745920651, 0.03017438017, -0.02190629393, 0.00035005249, -0.02908438444, 0.01464510802, 0.00561891682, -0.02176275849, -0.02790294588, -0.03512997180, 0.01913513988, -0.02356608585, -0.01880464703, 0.00484990235, 0.00312463613, -0.01680055447, -0.01908973977, -0.02586463839, -0.02035632171, -0.02125505358, 0.01767519489, -0.01283078454, 0.01644701138, -0.00201208750, -0.00968779810, 0.01638147235, -0.00584279187, 0.01133934036, -0.00925321504, -0.01421875693, -0.02134476043, 0.01248117164, -0.02680399641, 0.02030818909, 0.00473784283, 0.00530137867, -0.02255851775, -0.02325978130, 0.00346300285, 0.01517804898, -0.01225987077, -0.01312598586, 0.00230229273, 0.03453311324, 0.01056588721, -0.03589046374, 0.01425083354, 0.01449840888, -0.02722014859, 0.01125400141, -0.00605954695, -0.01567071304, 0.02695820481, 0.02738473751, -0.00730689941, -0.01487575844, -0.03351601958, 0.01403235644, -0.01569801196, 0.00545674795, 0.02648986690, -0.02635625936, -0.01763637736, -0.01431503333, -0.00506465510, -0.00010403432, -0.00295034191, -0.01300285757, 0.01405481063, 0.00356624275, 0.00106339157, -0.03135366738, 0.03403727710, 0.00984235667, -0.03913040459, -0.00455852645, -0.02603829466, -0.00485162204, 0.03351018950, 0.02329733036, -0.00355827459, 0.00066270307, 0.00602006819, 0.01025465690, -0.02510733157, 0.00074249669, -0.00579819456, -0.02301395498, 0.00725014834, -0.03599086776, -0.01380083337, -0.02269246057, 0.02948157303, 0.01177047379, 0.00135161029, -0.03127072752, 0.01174094435, -0.01155662257, 0.01375572104, -0.03756958619, -0.02565862052, 0.00211804220, -0.00542712538, 0.00403217506, 0.02397263423, 0.00558964442, -0.01145718247, -0.03695880994, -0.00245833583, -0.03242238984, 0.02997499704, -0.00891793799, -0.00041174795, -0.03928440809, -0.01565141231, 0.00353377033, 0.00383253396, 0.02161995694, -0.00826727413, 0.00713878032, -0.00839441456, -0.00249537872, 0.01654176787, -0.01264330465, -0.00507040694, -0.02224662900, 0.00169691257, 0.01834066026, 0.01805127040, -0.05148053169, -0.03230277449, -0.03304335475, 0.00266944850, -0.00335957902, 0.01669425145, -0.01193110459, -0.01143443864, 0.00886684284, -0.01858347096, -0.04373303801, -0.01778010279, 0.00806498528, 0.00422162749, 0.00545907905, -0.01932742074, -0.01685961150, 0.00418220088, -0.00305307703, 0.00269654347, 0.02564246580, -0.02995735779, -0.03250226378, 0.01163409743, 0.02188555710, 0.01374289766, 0.00993227120, -0.00183409313, 0.00071873842, -0.02026847936, -0.02050195262, -0.00536472769, 0.00679055508, -0.01236329693, -0.00452138018, -0.00976770185, -0.04423318058, 0.00381150609, 0.02573205344, -0.01908235624, 0.00717185298, 0.00527318241, 0.00198857300, 0.01186395437, 0.00232372480, 0.01794777624, 0.05156904459, -0.03696865961, 0.03897043318, -0.02943713963, -0.03275617585, -0.03797516227, -0.03802894801, 0.00170402508, 0.02761223726, -0.01174771972, -0.01303912140, 0.03156346083, -0.03120278940, 0.00371721596, -0.02264580131, 0.00704602618, 0.00903720222, -0.02066855878, 0.00986540597, -0.02440380305, -0.03322307020, 0.00900600851, -0.02711830847, 0.01113262866, 0.01856148243, -0.00571947079, 0.03374701738, 0.01631507091, 0.00868332479, -0.02089826390, 0.01757472567, 0.03244893625, 0.01574231125, 0.00289295614, -0.00288751954, 0.02880720980, 0.00517047290, 0.00946944486, 0.00909624435, -0.03882029280, 0.00753757637, -0.00370537303, -0.00698078051, 0.02192727104, 0.01984562911, -0.02374244481, -0.00245210389, 0.01574507728, 0.00975693576, 0.01376296952, 0.00841154344, -0.03364201263, 0.02037952654, 0.00057898846, -0.02739957906, 0.02398905717, 0.00017667562, 0.01101697981, -0.00954987109, -0.00759157445, -0.00593642285, -0.02312530391, -0.00734830834, 0.02576840669, -0.02329926006, 0.00262578414, -0.00885977224, 0.02044105344, -0.04328323528, -0.01634416729, 0.02517442964, 0.00071240403, -0.03226077929, 0.01562635601, 0.00272020698, -0.00448037870, -0.02884183638, -0.00837206934, 0.00072069414, 0.01892404258, 0.01519785449, -0.02654617652, 0.00219323253, -0.01455855928, 0.00253825448, -0.02890692465, -0.01456464920, -0.01254843920, -0.00744087342, 0.01333575323, 0.02445868962, -0.03011738323, 0.02589612827, -0.01877236925, -0.01101093367, -0.02030818537, -0.00870554429, -0.00675775064, 0.02901036292, -0.00140156131, -0.00099384412, -0.01031299960, -0.05204715952, 0.00325285085, 0.00679850392, 0.01634324528, -0.02509240992, 0.00601029210, -0.01486540586, 0.00074012484, -0.03180294484, 0.01604503021, 0.00205599167, 0.01618771814, 0.01524159778, 0.00319409138, -0.01376291923, -0.00894880015, -0.01328572072, -0.00845466740, -0.00954022165, -0.01299022231, -0.03469668701, -0.03059888631, 0.00880183000, 0.03006743267, 0.01919562742, 0.02727989666, -0.02506355941, -0.01087866630, 0.02949935012, -0.02956284396, 0.01211232413, -0.02317340486, 0.02648472972, 0.03278364241, -0.01309898589, 0.02560411766, 0.00046063587, -0.01246410981, 0.01022408158, 0.01967186294, 0.00794755202, -0.00620846404, 0.01181254908, -0.00769575825, 0.00828894414, 0.01656221971, -0.00632300694, -0.01257785782, -0.04256428778, -0.02206601948, -0.02174189873, -0.01233564131, -0.00093065249, -0.00008168537, -0.01214818284, -0.02725895308, 0.00828138180, 0.02894428559, -0.00983166788, -0.00202909112, -0.03372658789, -0.01410318352, -0.02172588557, -0.01306567527, 0.00748414733, -0.01511314511, 0.02090134099, -0.01516095549, 0.00516071031, 0.00182059617, -0.02212744206, -0.00729779666, -0.00380976871, -0.02309466153, -0.02324734628, -0.00998136401, 0.00777833210, 0.03678516299, 0.00832359213, 0.00825785287, 0.02862111107, -0.04327071458, -0.02288283221, -0.03912844136, -0.01369396411, -0.01730940491, -0.00667337468, -0.03932169080, 0.01930956915, -0.01661972329, -0.00320622884, 0.01766457409, -0.01676414907, -0.01736720093, 0.02383124642, -0.03425499424, 0.01265556924, -0.01133595780, 0.00386549067, -0.01466756687, -0.00866121240, -0.01720967889, 0.00696677435, 0.00884255953, -0.02303660847, -0.00746918935, 0.01470633037, 0.00049877260, -0.00650708936, -0.01451066323, 0.04043800756, -0.01041644346, 0.02041842788, -0.04172724113, 0.02325570211, -0.01654841006, -0.00576964440, -0.00717009185, -0.00222994015, -0.01003725082, -0.00698882621, -0.05298430845, 0.00388226192, 0.02813128941, -0.02725642920, -0.00367817935, -0.00361449597, 0.00345377438, -0.02171413973, -0.01632360555, -0.02274835855, -0.02460547537, -0.00505288690, -0.03919729590, 0.02133364230, -0.02601233125, -0.03107869253, -0.04097834975, -0.04092345014, -0.00015633693, -0.00086148828, -0.02598753199, 0.02879106253, -0.00127748773, 0.03112039529, -0.02535150386, 0.02347917296, 0.01603892259, 0.02321598306, -0.00204200996, 0.00190307107, 0.00135424500, -0.01482820697, 0.02745414525, -0.03175428510, 0.01685069501, -0.02112630196, -0.00758447265, -0.01418657042, -0.02694406360, 0.02098296583, -0.02237361670, -0.00577120623, -0.02771761082, 0.03048805706, 0.05089854822, 0.01872833632, 0.00866279192, -0.02623113245, -0.01378802303, 0.01064703986, 0.00616257358, 0.02843054384, 0.01555000525, -0.02256561629, 0.02013807930, -0.00496257050, -0.01258446369, -0.01455180626, -0.04722816125, -0.02548548020, 0.01627537981, 0.00786904246, 0.01828791201, 0.00520429574, -0.01276589744, 0.01716130972, -0.00718116248, 0.01416304428, -0.01894886978, -0.02536372840, 0.02173114754, 0.03495082259, 0.00348796975, -0.00481078867, -0.00942811463, 0.00799900200, 0.02183212154, -0.00641938299, 0.02574245259, -0.02307324857, -0.01980143413, 0.02186498791, -0.01030815765, 0.00303773838, 0.00854019448, -0.02207842469, -0.02081589960, -0.02919365838, -0.00926634297, 0.02664885111, 0.02316912450, -0.00076242612, -0.00360563654, -0.03780090436, -0.00324690226, -0.03859943897, 0.00949551258, 0.01499480009, -0.03597382084, -0.04737608135, -0.00047125178, -0.01774699241, 0.00763292052, -0.00994644128, -0.03585306183, -0.01705815643, 0.02647570148, -0.00942557119, 0.01732116193, -0.04063189402, -0.03826379776, -0.00927452557, -0.01738997176, -0.00482042693, 0.00199045497, 0.01362221316, 0.02761595882, 0.03156095371, 0.01068967953, -0.02854416147, 0.01008249074, -0.00493817264, 0.00081137801, -0.05555748940, -0.01428819727, -0.01264167298, -0.02486057580, -0.01632313058, 0.00986238476, 0.00568999350, -0.02233012393, -0.00260252692, -0.01451401971, 0.01287767570, 0.00807846524, 0.00325586926, -0.01549210865, -0.00906376354, 0.01111654192, -0.02046635188, -0.02645657212, -0.02517436817, 0.00156488456, 0.00941298902, -0.01423395518, -0.00429321826, -0.01099146996, 0.03029254638, 0.02265227400, -0.00257853605, 0.02564780228, 0.00639649574, -0.02222412825, -0.00285428576, 0.00259803678, -0.00665501645, 0.00561141595, -0.03566448018, -0.02210761793, -0.00840582140, -0.02963257208, 0.00559393130, -0.01201726217, 0.00067944871, 0.02809323184, -0.00581032876, -0.03193518519, 0.00822925847, -0.00479213381, 0.02509982139, 0.01486273762, -0.00675696880, -0.02744475566, 0.00147045497, 0.03092883341, 0.02405117452, -0.00042712572, -0.00587231247, 0.01218934171, -0.00168837048, 0.01458085701, -0.00131137483, 0.01688734442, 0.01145606022, -0.01750290766, 0.01859228313, -0.03113577142, 0.00349892769, -0.00843142625, -0.01370418631, 0.00834774785, 0.01047529187, 0.02613859996, 0.02851851285, -0.01634758525, -0.01170986798, 0.00761497766, -0.02919810638, -0.04728773609, 0.00730198249, 0.00731574791, -0.02049591765, 0.04083938897, -0.00440120837, 0.00423048856, -0.02281416953, -0.02583283000, 0.02261073887, 0.00517769251, -0.02308142371, 0.00950237736, -0.01302913390, 0.00666809548, -0.01616664417, -0.02002578042, 0.02016090788, 0.00767906103, -0.01769526675, 0.04616831243, -0.00689830678, -0.01388681494, 0.03860797733, -0.02702078223, -0.03540341929, -0.03465317562, -0.01151135657, -0.03644406423, 0.00408312725, 0.01957187802, 0.02082146332, 0.00469131675, -0.02557590790, -0.01548422873, -0.00907429494, 0.03761712462, 0.01574401185, 0.01159800868, -0.01248186547, 0.00022149866, -0.01892205328, 0.00116113690, -0.02272658236, -0.03148914129, 0.01013940014, -0.01789020561, 0.00831639674, -0.02082650363, 0.03625476360, -0.00735230371, 0.00208048685, 0.00375869428, 0.01953358576, -0.01654550433, -0.00671366882, -0.02706567198, 0.01361143775, 0.01480151620, -0.00065573910, -0.00321023352, -0.05551202968, 0.03169847280, -0.00664532837, -0.01793053374, -0.00248383032, -0.03581470251, -0.02979434282, -0.03485643864, -0.01942797564, -0.03410419822, 0.03669923544, -0.01143759582, -0.00080762152, -0.01087186858, -0.01369334292, 0.01899874955, -0.01013823412, 0.02587484010, -0.00686084200, 0.01151670516, 0.03131364286, -0.01263072807, 0.00903218798, 0.01607448235, -0.01249880530, -0.03539048508, -0.02979974635, -0.02098137327, -0.00262443419, -0.01066771429, 0.01201312803, -0.01083945297, -0.03655925766, 0.01074182615, -0.01992380805, -0.01241036225, 0.02276762575, 0.03399315849, -0.04224438220, 0.01528297551, -0.04216040298, -0.02881283313, -0.06332293153, -0.01777973212, 0.03004241362, -0.01276462525, -0.01242544968, -0.00838832464, 0.00908308942, 0.02039580047, -0.02881708927, 0.03649531305, 0.00978424866, 0.02855111100, 0.00768700615, 0.00430836342, -0.04692774639, -0.00469344249, 0.01313573308, 0.01304201502, -0.01875654235, 0.01598279737, -0.01352331974, 0.01770830899, 0.01494568773, -0.00310472702, 0.00571745075, -0.02628518641, 0.00672406889, 0.01283730473, 0.01494443789, -0.01682196744, 0.04712516069, -0.01050010975, -0.03536208346, -0.02480624244, -0.00376316928, 0.00020773988, -0.05350565910, 0.01199510228, 0.01071398426, 0.00970893912, -0.01422487944, 0.02741223015, -0.00887104962, -0.02489489503, 0.01679497398, 0.02071515843, -0.01781969704, 0.01963921823, 0.01797033474, -0.02709800191, 0.03338997439, -0.00212091394, 0.00050167367, 0.01105672587, 0.00541887525, -0.01521319337, -0.00721021462, -0.02419040725, -0.01031223312, -0.01542764623, 0.01101411786, -0.01388907619, -0.02764225937, 0.00841386430, 0.01909804903, -0.01769495197, -0.00606017187, -0.00055310217, -0.02050939016, -0.00884393230, -0.00668867864, 0.00516595086, 0.01095227152, -0.01887507178, -0.03312057629, 0.00970123801, -0.00272558350, -0.00629413687, -0.01641504839, 0.03586325794, -0.00367283449, -0.02262788825, -0.02297468483, 0.03882458806, 0.01913014427, 0.00982287992, -0.00185580901, 0.00366376434, -0.01200110093, 0.00351103488, -0.01469177287, -0.04202141613, 0.00318232900, -0.02712215111, -0.05387047678, -0.00139133958, -0.03834608942, 0.01185965352, -0.00229082583, -0.00143643422, 0.01553853787, 0.01037460659, 0.00436333194, 0.00116040464, 0.02554522082, 0.02711437829, -0.02257944643, -0.03527082503, -0.01883921586, 0.00145784114, 0.00147852302, -0.02402156405, 0.00994710997, -0.01894291490, -0.03921807557, -0.00509567373, 0.01466397103, 0.00076791365, -0.00735730026, -0.00610204041, -0.01252741553, 0.00052918307, -0.00616871379, -0.03046931326, -0.01396501809, -0.02331010997, 0.01611846127, 0.01156364940, -0.00084002805, -0.04950923473, 0.01944362372, 0.01015802845, -0.00585105456, 0.00231070630, 0.01031447761, 0.02635459229, -0.03488832340, 0.01042741071, -0.01163531933, -0.00753783155, -0.02658012882, -0.00464846333, -0.03381382301, 0.01424911991, 0.01512506604, -0.03845889866, -0.00950791501, 0.01304127090, -0.02499151230, -0.01177799422, 0.01078632195, -0.00441538496, -0.02022847719, -0.01309031155, -0.00696572848, -0.04281976074, -0.00827969890, 0.01376079395, -0.01792363077, 0.00357864425, 0.01739994995, -0.00793165155, 0.00980220176, -0.01521237753, -0.00643604062, 0.00492588244, -0.00914870389, -0.01440534182, -0.02359354123, -0.00272818841, -0.05265385658, -0.01122456044, 0.00363292149, -0.01865208894, -0.00333836884, 0.04162679985, -0.00085254153, -0.02321090177, -0.03000468016, -0.01708976179, 0.01785805449, -0.01310701575, -0.01312199794, -0.02204850689, -0.00883459114, -0.03126485646, -0.03124702722, -0.01568794809, -0.03278479353, -0.02136096731, -0.00112938415, -0.02473555878, -0.02675047517, -0.02576230094, -0.01568046957, 0.02008221298, -0.02472013980, -0.04066877812, -0.01176252868, 0.01314881817, 0.00821832754, -0.00890498701, 0.01116479002, -0.02003720403, -0.02637149580, 0.00823411532, -0.01182253752, -0.00911485497, -0.03127489612, 0.01412676461, -0.01410023496, -0.00771775888, 0.02438521199, 0.01247396693, -0.00208157930, -0.02149969898, -0.00532829668, -0.01149576809, 0.00868989527, 0.01036597323, 0.01643545926, 0.02784739062, 0.00774201471, 0.00780818891, -0.03049123846, -0.01776676252, 0.00201043766, 0.01805349067, -0.02512746677, -0.00087533705, -0.03551369160, 0.00908113550, 0.02555504069, -0.01460945979, -0.00736967381, 0.02942549624, -0.00291277375, -0.00699921371, 0.00156335463, 0.01567178220, 0.01314019226, -0.01302922703, -0.02479396388, 0.02584442869, -0.00279178005, -0.03080885485, -0.02655454725, -0.04434093460, 0.01854385808, 0.00865848828, 0.03560246527, -0.01651294343, -0.01841370389, 0.02396499738, -0.00381032215, -0.02053552866, -0.05786480382, -0.01198907662, 0.02008528262, -0.02403473854, 0.00358932046, -0.03859785572, 0.02883656695, -0.00147655467, 0.01196308993, 0.00669214176, -0.02265046909, 0.01859473623, -0.00300267292, -0.03573254868, -0.01443297695, 0.00856522657, -0.00768471789, -0.00323670800, -0.00827697385, 0.00197072141, 0.03197504580, 0.00315694627, 0.02540524304, 0.01664964296, -0.01088481583, -0.01722845808, -0.00174280768, -0.02296209149, -0.00841374882, -0.03322408348, 0.00650279876, 0.02943386883, 0.01150919218, 0.01556107961, -0.00655183382, -0.02293428592, -0.03614586964, -0.02138299868, -0.01653094403, -0.02149423957, 0.03519437462, 0.01328478102, 0.01441014186, 0.01648353972, -0.00249782344, -0.01139875129, -0.03170722350, -0.02663630806, -0.03066984192, 0.01123345457, 0.01744589955, -0.01044718642, -0.02056057565, -0.01969192736, -0.00427196734, -0.04663701355, -0.00618732767, -0.00119826198, -0.06029517576, 0.04046421498, -0.01236104593, -0.03443874791, 0.00148568593, -0.01162793767, 0.01171214506, -0.03098785505, -0.05430644751, -0.00361917680, 0.00306196697, -0.00011140108, -0.03190631419, -0.02412010171, -0.01271002553, -0.02191933803, 0.00550496811, 0.00038383063, -0.04202400148, 0.00681199878, -0.01226719748, -0.01372792851, 0.01165638585, 0.01767367870, 0.00716216443, 0.01336009242, -0.02986695617, -0.01731491648, 0.01190744527, -0.00050445274, 0.02060154639, -0.02364095487, 0.01939365827, 0.00362490304, -0.02880060300, 0.00000800099, 0.00403357437, -0.02413929999, 0.01049281005, -0.03559466824, -0.00878442079, -0.04390791431, -0.02022198960, -0.05263089761, 0.00649659429, -0.02022570185, -0.00327035994, -0.03268013149, -0.01556352526, -0.02085218765, 0.00608015200, -0.02284003608, -0.03008760512, -0.02330197766, 0.00865513273, 0.00564440433, -0.05566748977, -0.00401891163, -0.00005116139, -0.01847744733, 0.03789412975, -0.01834230684, -0.00234959647, -0.03748814762, 0.00649055233, -0.02686979808, -0.00815281644, -0.01842306554, 0.01531015243, -0.04460935295, -0.03109465539, -0.02046647295, -0.00402624859, -0.03677313775, -0.02703888156, -0.00219610822, -0.01876291633, 0.01540966611, -0.00173752499, 0.02588051930, 0.00971264485, 0.00932694413, 0.03162215650, -0.00991446804, -0.02181244642, 0.01675859280, -0.00309247244, 0.02130480669, -0.00312091922, 0.00427248841, -0.00207018619, -0.02603131905, -0.02450546622, -0.00818435382, 0.00233367318, -0.00758995581, -0.01926285401, 0.00070018740, -0.01688244939, 0.02031828649, 0.01042461582, 0.01441019122, -0.01213083789, -0.00054227281, -0.00248448132, 0.00168112968, -0.00189066667, -0.00183884776, 0.01168082561, -0.01425851602, -0.00470828265, -0.03095627204, 0.01644489542, -0.00701527484, 0.04145690054, 0.01044627465, -0.02081479132, -0.03326245397, -0.02818903327, -0.02614675835, -0.00801099651, -0.01095216721, 0.00404177047, 0.00780515419, 0.02955358103, 0.00911788922, 0.02501887083, 0.01124109421, 0.04346741363, 0.01736479439, -0.00895035826, 0.01206054166, -0.00390381156, -0.03769636154, 0.01027915440, -0.01049660239, 0.00367673603, -0.01945222169, 0.00946937688, -0.02270363830, -0.03597066551, 0.00864494964, -0.03867774829, -0.02045831457, 0.02147138305, -0.02012455836, 0.01645056531, -0.04836963117, -0.04912262037, -0.03184109181, -0.01784061268, -0.02441323549, -0.02920693345, -0.04119502380, 0.01386496052, 0.02251368202, -0.00634530745, 0.02347254008, 0.01110032760, -0.02979869768, -0.01117377728, 0.00247427565, -0.02369653806, -0.02035369910, -0.02666495740, -0.00760056265, 0.00920706615, -0.01697087288, 0.00623232033, 0.02569811605, 0.03518682718, -0.01254010852, -0.01772479340, -0.00518840645, 0.00446176063, -0.02584110945, 0.00049880706, 0.00772919552, -0.03523413837, -0.00322107086, -0.01508906484, -0.03239345923, -0.01264198963, 0.03278864920, -0.02508580685, -0.02393933386, -0.02345648035, -0.03481176496, -0.00185337570, 0.02445556968, 0.02013349347, -0.03050081059, -0.03300916776, 0.00442115217, 0.00999508426, 0.02814527974, -0.01079139207, 0.04450286180, 0.01788501628, -0.03676270694, -0.02644036897, -0.03055892885, -0.02338365838, -0.03122136928, -0.01849772595, -0.02050138265, -0.00482041016, -0.02777584083, -0.04046267271, 0.01696443558, -0.00690695550, -0.03086861037, 0.00263811275, -0.01987969317, 0.03075675108, -0.01625388488, -0.03346932679, -0.01353708282, -0.00805762876, -0.00602056086, -0.04104518145, 0.02454971336, -0.00304629374, -0.00597584853, -0.02268575132, -0.03600292280, -0.04227320105, -0.04682164639, 0.01841348410, 0.01566254348, -0.01417917944, -0.03558966517, -0.01112663466, -0.05188359320, -0.00840127841, -0.00661542267, 0.01683470234, -0.01945542544, 0.00083625037, -0.00484663621, -0.01279970258, 0.00085127051, -0.01923436113, -0.02876593918, -0.00255733868, -0.04082699493, 0.01315098628, -0.02627206221, -0.00592419319, -0.01295430306, -0.02026422322, -0.02296912670, -0.03525790945, 0.01117502246, 0.02813262120, -0.00965247396, 0.02036130615, 0.00002296118, -0.01941174828, -0.04157743230, 0.03528777137, -0.03256517649, 0.01830992475, -0.02108726278, 0.00303707644, -0.03551347181, 0.01899228618, -0.02527148090, 0.00963531248, -0.02990406007, -0.03074228391, -0.00874148309, -0.03015980124, -0.04261369258, -0.01505905762, 0.02965656295, -0.00539693516, -0.00683983276, 0.01264850982, -0.03004377894, 0.01937260292, -0.02722572908, 0.00272028334, 0.02035847306, 0.04236651585, 0.00298337359, 0.01089360099, -0.01793037541, -0.02451602742, 0.01032214984, -0.03773176298, -0.00839511398, -0.01940388605, -0.02324220352, -0.01926523261, 0.02634402178, -0.00610399619, -0.01212185714, -0.01225793082, -0.03430697322, -0.00088342838, -0.04859353974, 0.00672574621, 0.02598098665, -0.00497927750, -0.01222072355, 0.00111862272, -0.01342364401, -0.00969582982, -0.01422576327, 0.02237251773, -0.03449831158, -0.02849787287, 0.01816958375, 0.02317081764, 0.00699829124, 0.02776198648, 0.02881244943, 0.02410076372, 0.01099576429, -0.01108553726, -0.01137711294, -0.04018586129, 0.00259910524, -0.03248274699, -0.01074838266, -0.01858019643, -0.02062810771, -0.02532939427, -0.00569406804, 0.01939132623, -0.03121057898, -0.02594305761, -0.00215555727, -0.00801799260, -0.01592388190, 0.01867099106, 0.02068738453, -0.04157989472, -0.01193728857, -0.01833366975, 0.01163854729, 0.02733818814, -0.04768550396, 0.01010737475, -0.00938648358, 0.00258947304, -0.00885917712, -0.01488473080, -0.01101222634, -0.00759927277, 0.00084576150, -0.02040374465, -0.04836601019, -0.01863393188, 0.00894396566, 0.01581685804, -0.00344845350, -0.06097225472, -0.03572099656, -0.03991898894, -0.03089244477, -0.02982508019, -0.02620972134, -0.01958387904, 0.01486799680, -0.01702789962, -0.01751317084, -0.01598364860, 0.00247412175, 0.02111846581, 0.00937063526, 0.02173443697, 0.02591749281, 0.00736946240, 0.00196970627, 0.01312179025, 0.00675489008, 0.01671520621, 0.01016692258, -0.02281849459, -0.01014905237, -0.00797142927, 0.01956757158, -0.01294243522, -0.00109182578, 0.00783966575, 0.00822952390, -0.03235070035, -0.02751425095, -0.00170411170, -0.02904291637, 0.01845127717, -0.01938951947, 0.00433769729, -0.03689437360, 0.03508216143, 0.03173446655, -0.00246789865, -0.02154708467, 0.00947141647, -0.00287575461, -0.04684248567, 0.03355436027, -0.04441250861, -0.00277955830, -0.00546666328, -0.04041719809, -0.01317876391, 0.00526641402, 0.00597625226, -0.01195464283, 0.00738241058, -0.05186241493, -0.03088495508, 0.01654811762, -0.02780130878, -0.03703496978, -0.03347330540, -0.01496450976, 0.01475428417, 0.03228816390, 0.00444305735, -0.01491042227, 0.02335438505, 0.00330137275, 0.00607637037, -0.02624991722, -0.03279616684, -0.01154428255, -0.05480452627, -0.02670075186, 0.02117388323, 0.00525898067, -0.03803388402, -0.00313615892, -0.00704451324, 0.02954088710, 0.02270464040, 0.01326056663, 0.02888146229, 0.01641717926, -0.04105594382, 0.00632193312, -0.01622822136, -0.01178824343, 0.03272838891, 0.00628215726, 0.00500771543, 0.01306226570, 0.03139893338, -0.00271738973, -0.00209892192, -0.01054249518, -0.04818071797, -0.02811184525, -0.00071976287, -0.04209452122, -0.00671885628, 0.00675077830, -0.00383301754, 0.02028382570, -0.03301241249, -0.00544637954, -0.02686364949, -0.02861549519, 0.02480449900, -0.00306695513, 0.00087594287, 0.01165311132, -0.03130192682, 0.00908292644, -0.02517247573, 0.01012535952, -0.01616653427, -0.00914344005, 0.01735814102, 0.02205960639, 0.02772229537, -0.00528366305, 0.03172807768, 0.00360892992, 0.00988732092, -0.02617449500, -0.01856779307, 0.02580527961, -0.01179102436, 0.00016645691, 0.01925884373, 0.00192981074, -0.03251451626, -0.01443954743, -0.01409470383, 0.03325258568, -0.02322610468, -0.00804002956, -0.00824517757, -0.00276944926, 0.02269891649, -0.03687443584, 0.01298237313, -0.03289523348, 0.00763132703, -0.01157499570, 0.00538083352, -0.02056861110, -0.00204079645, 0.00119867153, 0.00872197840, -0.04625243694, -0.00928239524, -0.04120145738, -0.02300763316, -0.01300407574, -0.02657212317, -0.00451232726, -0.01599580236, 0.00994058046, 0.02163827606, -0.02867561765, 0.00795738865, 0.00150112552, 0.03320280835, -0.01334952004, 0.03028879315, 0.01032326277, -0.01916127093, 0.00509572495, -0.01477946527, -0.04589324817, 0.01878459193, 0.02928717248, -0.01069506165, -0.03129102290, -0.02858304605, -0.01068573631, -0.00663803099, -0.02010032721, -0.05590653419, 0.02088992298, -0.02123848908, 0.00142069079, -0.00712666847, -0.02747226134, -0.02412198856, 0.01927685365, -0.02483503520, 0.00414570048, -0.00403833808, -0.01981643960, 0.00839870889, -0.04269532114, -0.01632306166, -0.02301069349, 0.01189536322, -0.03232290968, -0.03395067155, -0.00099424552, -0.01535844710, -0.00196114136, -0.02971303463, -0.00887133088, 0.01037127431, -0.04569721222, 0.01468429901, -0.04326191917, -0.04089993611, -0.01187204756, -0.02129105479, 0.00232894812, 0.02209704556, -0.00933157280, -0.01899400726, 0.00529583637, 0.03240814805, -0.01077967137, 0.01246022154, -0.02183685265, 0.00999533199, -0.02931571379, 0.00044952659, -0.01984267309, -0.04189536721, -0.00213596039, 0.00122859154, -0.01484053489, -0.01516779140, 0.01048554014, -0.01554278936, 0.00519387238, -0.03541912511, -0.02365759760, 0.00172974635, -0.03419180959, 0.00840360206, 0.01707307436, 0.00540575758, -0.01549874246, 0.01425316185, -0.01940130256, -0.04828350618, -0.03916945681, -0.03121706843, -0.00477149244, -0.02489876002, 0.02785836719, -0.04371114820, 0.00297152065, -0.00975910015, -0.01734152064, -0.02118015289, -0.01324671227, -0.02432111278, -0.01946419850, -0.01329119503, 0.00997010898, -0.03667585179, -0.02187588625, 0.04077641666, -0.03645385429, -0.00967125501, -0.01451684535, -0.01270003803, -0.01451191306, 0.00450401939, 0.01012053713, -0.01184952352, -0.00718892645, -0.00088549941, 0.02025176585, -0.02895608172, -0.00615055161, 0.00997450761, -0.01164718531, -0.00782885682, 0.01433827914, -0.02826257609, 0.00285798591, 0.05080056190, -0.03000465408, 0.00615489064, 0.00309527759, -0.01388640329, 0.00632669823, -0.02720417827, 0.00237603812, 0.00223782333, -0.01332292892, -0.02133254148, 0.00419012457, 0.00049527176, 0.01042648498, 0.01475064177, 0.01407045964, -0.00906355493, 0.00689168368, -0.01123857219, -0.01044459920, -0.01001154538, 0.00430377573, -0.06398756802, 0.00984033383, 0.02979878150, 0.01195007190, 0.02984114736, -0.00380349811, 0.00347111374, -0.03584063053, -0.00962293148, -0.01700162888, -0.00542019634, 0.01256125420, -0.01925363578, 0.00336328987, 0.01482767984, 0.01867418177, 0.03981135041, -0.01438356563, -0.04295128956, -0.00633212226, -0.02054954879, 0.01350397803, -0.01374894101, 0.00339221884, -0.03036616929, -0.01800425351, -0.00111179333, -0.02317936346, -0.02718925104, -0.03398061171, -0.02826826647, 0.01243286394, 0.02429285645, -0.00277586142, -0.02308021858, -0.01319517475, -0.01687716320, -0.03406536207, 0.01596022956, 0.01689735614, -0.02238781378, -0.00045745727, 0.02601882070, -0.02317659371, 0.01537351683, -0.01402572356, -0.04617144540, -0.03468509018, -0.03003986552, -0.01820870303, 0.00971449167, 0.01124699879, -0.01335199643, 0.00198433921, -0.03708970919, -0.01735015959, -0.01309975050, 0.01266979985, 0.02078337967, 0.01102667488, -0.02320472151, -0.00642168848, -0.00742496550, 0.03746332973, -0.03202788159, 0.00260739913, 0.02931942977, 0.00800148584, 0.00299590081, 0.00999001786, -0.02953989804, -0.00828223303, -0.01156656258, -0.00969553087, -0.02795463800, 0.02855160460, 0.00666592456, -0.02269803919, 0.02166169509, -0.02513384819, -0.01856997609, -0.03497287631, -0.01693748496, -0.03852811083, 0.00370312855, -0.00109897042, -0.02834745683, -0.02158099227, 0.01232538931, 0.03162761778, 0.03183494136, -0.00314369029, -0.03634208441, -0.04184500873, -0.00676052272, -0.04234205559, 0.01441588905, -0.03477036208, 0.00177175691, -0.01590550132, 0.00110459293, 0.00587211549, -0.02618339285, 0.01810734160, 0.02174727619, -0.00908624567, 0.01718091033, -0.01558359154, -0.00744150300, 0.01188447792, -0.01819532365, 0.01781038195, 0.01168901846, -0.03740229830, 0.02818330377, -0.00301943882, 0.01772097126, -0.00881610066, 0.01637393609, -0.04340078309, 0.01063987706, 0.01575640216, -0.01162640005, -0.05499952286, -0.00147163915, -0.02007560804, 0.01382525079, 0.00319246808, 0.00584982894, 0.01920540445, -0.02306145430, -0.00780298840, 0.00333761121, -0.03106286004, -0.02080117539, -0.03177383542, 0.01576844417, 0.02101840638, 0.01488805003, -0.01883283630, -0.00097517390, 0.02696090005, 0.02089205012, -0.00592932850, -0.01890674420, -0.03337286785, 0.03366797045, 0.01048121229, 0.00188609259, 0.03083282709, -0.01850540750, 0.00678685401, -0.01346916147, -0.02203935385, -0.02551654726, -0.01029758155, -0.02852420509, -0.00681367423, -0.03205699846, -0.03716956824, -0.03981093690, 0.00504150894, -0.00038018823, -0.01990686730, -0.00900542829, -0.02847654186, -0.00769057265, 0.02760391869, -0.00998362899, 0.00777007081, 0.02727537788, -0.02464177459, -0.01767329685, 0.03013520502, -0.00864702277, -0.00203695148, 0.00765416631, 0.02158617973, -0.01693936251, -0.02671741322, 0.00966292992, -0.03188040853, -0.01973831467, 0.01580386795, -0.00138060655, -0.02394283563, -0.03290278837, -0.02281279676, -0.02729302458, 0.00813007541, -0.03473882750, -0.04175731167, 0.00329262204, -0.00635005627, -0.02480035089, -0.01417911425, 0.00267018192, -0.01630330831, 0.00782190263, -0.01321740076, -0.02018567175, 0.01106744632, 0.00618795771, -0.05312242731, 0.01052384637, -0.02993343398, 0.01104786154, 0.00912880711, -0.00962154008, -0.04540036246, -0.00434676418, 0.00925390422, -0.04022888467, 0.01496382430, 0.02323839068, -0.01781015284, -0.02472247928, -0.03228475153, 0.02918701246, 0.02614527009, -0.00257666735, 0.00678802980, -0.01579991542, 0.00868154131, -0.03616904840, -0.01618593931, -0.00863671675, -0.00973781198, -0.03129136935, 0.02245885134, 0.00028913282, -0.00464857602, -0.01644628309, 0.01075840741, -0.00795037393, -0.00865539908, -0.01582451165, 0.00227328995, -0.02734487318, 0.00065117702, 0.01794866845, -0.01271733176, -0.03665130213, -0.04515397176, -0.01264997385, 0.02345015109, -0.02886736207, -0.03237471730, 0.00671061035, -0.02921537310, -0.00932997651, 0.02020949498, 0.01952342130, -0.01000608131, -0.00818457175, -0.03979481384, 0.03262546659, 0.03098707274, -0.02569353580, -0.00465918798, 0.00874023419, -0.00093503832, -0.03477605432, 0.00406709593, 0.01767063327, -0.00655351393, 0.03684878349, -0.00707759429, 0.01361313276, -0.05001872033, -0.02958081663, 0.02371473983, -0.00313536637, 0.03663243353, -0.01521627419, 0.01837495342, -0.01768479124, 0.00247399556, 0.00431130454, -0.02791626379, 0.04937610403, 0.01032857969, -0.02099840716, -0.00974041410, 0.01312932093, 0.01867324486, -0.01979896240, 0.02952572331, -0.02813558094, 0.01806196198, -0.01177607477, 0.01445873361, -0.01604733989, 0.00290202978, -0.01316056307, -0.01117124408, -0.02461025678, 0.01309480332, -0.01001272909, -0.00035290048, 0.00707872212, 0.00378146907, -0.02509159222, 0.01668954454, -0.00214061141, -0.02903179452, 0.02196632139, 0.02562208846, -0.01077828184, 0.01194543485, -0.00923000928, 0.00125124515, 0.02950573713, -0.00412072334, 0.03010751307, -0.03161247447, 0.00306723034, 0.03822993860, 0.03050960042, -0.00939462334, -0.01174794510, -0.00784751680, -0.03482086957, 0.01896359771, 0.01986909658, -0.00752016902, -0.02482707798, 0.00830692053, 0.00294463942, -0.01544586755, -0.01308546122, 0.03002661467, -0.00226360792, -0.00698849838, 0.00084883114, 0.00083985599, -0.00361543638, -0.03248528391, -0.01189205423, 0.00423201732, 0.02654855326, 0.00040087290, -0.05748761818, -0.00546560623, -0.05009463429, -0.03446686640, 0.01612895168, 0.02637023106, -0.04043114930, 0.01496821176, -0.02721751295, -0.01419057976, 0.00230453722, 0.00278222281, -0.04337622225, -0.01895228028, -0.03541993722, 0.01496828627, -0.02940363437, -0.02607282996, 0.01336282119, 0.02557534538, 0.01352814585, -0.01557475887, 0.00045625283, -0.03474923223, -0.00978905149, 0.00333131012, -0.03594634309, -0.01088107936, 0.01133397594, 0.00383228762, 0.00429804204, 0.01244547032, -0.04186213762, -0.01414768957, -0.00040273205, -0.02736836486, -0.00959247630, 0.00646915426, -0.00983846467, 0.02174056694, -0.05544807762, 0.01969396323, -0.02940442227, 0.02936080098, -0.00151936896, -0.01171153784, -0.03678149357, -0.01069177501, 0.00213291706, 0.00924224406, 0.02328229509, 0.00192702794, 0.03081878647, 0.01085532364, -0.01122502983, -0.01412827056, -0.03215841949, -0.04655017331, -0.01554922387, -0.02809660882, 0.02497654408, -0.02392088436, -0.03500067443, -0.03182560578, 0.02049864270, -0.00817783549, -0.00760828285, -0.00239643292, 0.00270787254, -0.00635165349, 0.00888008811, -0.01993622258, -0.00293523748, -0.01852537692, 0.03251227736, -0.01343737543, 0.01912478358, -0.01309856027, 0.00154975383, -0.03485102206, -0.00025613094, -0.01621067338, -0.01693380065, -0.00375693804, 0.00688415067, -0.00571613805, -0.02270882018, -0.00136237312, 0.01380480826, -0.02600253746, -0.01607568190, 0.00957617350, -0.00391154736, -0.00836890657, -0.01864488237, -0.02931952290, 0.01442319527, -0.03395838290, 0.00556832738, -0.02835866809, 0.00710952608, 0.00954394042, -0.01049091481, 0.00552115124, -0.03611906990, 0.01485501509, 0.00486778608, 0.01312040817, 0.00417199824, 0.01960410550, 0.00646986160, -0.02625440806, -0.00300216977, 0.01628816500, -0.03075992316, 0.03460992873, -0.00358928181, -0.02787820064, -0.01516977698, 0.01197643112, -0.02253513411, -0.02044236287, -0.05082678422, -0.03247869015, 0.01672155038, 0.00454116892, -0.00587848946, -0.02387553453, -0.01463496871, -0.00388363376, -0.01413517445, -0.00351607008, -0.02057542652, -0.00529645896, 0.00880588312, 0.00033131894, -0.00337774120, 0.01920034364, 0.01720155403, 0.04692053422, -0.03075473383, -0.01060486119, -0.00525911571, 0.01189444959, -0.02926983312, -0.01247373596, -0.01722306013, -0.00965119526, -0.03898870200, -0.00881789718, 0.00187694374, 0.02029591240, 0.00570574449, 0.01121828612, -0.03978857398, 0.02802591771, -0.00259602093, -0.02032146044, 0.02247338369, 0.03591022640, 0.01979956217, 0.02218087018, 0.03222151846, 0.01408581156, 0.02091017365, -0.01576303877, -0.00725495396, -0.02079984173, -0.02017958462, 0.01904711500, -0.00348130381, 0.01823184453, -0.01527014561, 0.01452528127, -0.02132624388, -0.00274130935, 0.00136870192, 0.01170853712, 0.00889042113, 0.00681841839, -0.00407306664, -0.01573229022, 0.00093109836, -0.00265137665, -0.01720671356, -0.02066436037, -0.01637882926, -0.03598177060, 0.00353775686, -0.01650108397, -0.01079034619, 0.02102312818, -0.00613620738, -0.01143873669, -0.01614208706, 0.03574499488, 0.01140013896, -0.03361624852, -0.02643423527, -0.02831639722, 0.00278748013, 0.00455429312, -0.02918444201, -0.02521030419, -0.00424017059, 0.00437602634, -0.02686326951, -0.00733509008, 0.03288306668, -0.00001226645, -0.03392897919, 0.01356232446, 0.00395201705, -0.03672165051, 0.00575990696, 0.01022095513, 0.01235986594, -0.02278857864, -0.00926903356, -0.00547574926, -0.00326192658, -0.01258009952, 0.01423948165, 0.00856329873, -0.01231588516, -0.00530622806, 0.01652839035, -0.00233371160, 0.01491058618, -0.00740309060, -0.00470726099, -0.01187842991, 0.00118166255, -0.00995014422, -0.00308990572, 0.03417866305, -0.00406965148, 0.00005186535, 0.00939758308, -0.02869531885, 0.01087795570, -0.02469195984, -0.01048333477, -0.00844880659, 0.01630812511, -0.00438289298, -0.03372259811, 0.00892809313, -0.02228754759, -0.00996064022, -0.00656968495, -0.03205105290, 0.03122222051, 0.00780117698, -0.01542403083, -0.00225069723, 0.01153406873, -0.00041785045, -0.02651373670, -0.02840154991, -0.03443526477, 0.01488955971, -0.01397094876, 0.01321688481, -0.01314375363, 0.01925003901, 0.02331221290, -0.02009870112, 0.02584479563, -0.00417281408, 0.00106852385, -0.04439738765, 0.00009619497, -0.01071912888, -0.01271383930, 0.01426924206, 0.00978094991, -0.01220971718, -0.01222479716, -0.01702985726, -0.01707104221, -0.02234085090, -0.01154152118, -0.01716440357, -0.04112851620, 0.01233998593, -0.01349226758, -0.00603847997, -0.00854748860, -0.01493954565, -0.00042166206, -0.00673099142, 0.01197766513, 0.01931672916, 0.01063189562, 0.00215905625, 0.00720672682, 0.01685246825, 0.00230230181, 0.00200966164, -0.00992861204, -0.02732410468, 0.01811984740, -0.01929426380, 0.01521134656, -0.02076363191, 0.03522405401, -0.00084792566, -0.02193748206, -0.00665445486, -0.01233945973, -0.00593354227, 0.00866327900, 0.01648346335, -0.00519327773, 0.00271651335, 0.01983558759, -0.01280064788, 0.02434962057, 0.02240800671, 0.05007509142, -0.03475558013, 0.00035160128, 0.01032535825, -0.00431748200, 0.00047032675, 0.03952610493, 0.02070498653, -0.00142698223, 0.02186794952, 0.00994428713, -0.01717005670, 0.00585183967, -0.02845776454, 0.02234745771, -0.00689403806, 0.01386241429, 0.01459974982, -0.03714837134, 0.02039343864, 0.01570835710, -0.02797843888, 0.00249607675, -0.00666424353, -0.01084882580, -0.01698848605, -0.00163444551, -0.03930255398, 0.02787757665, -0.00450812653, -0.00470443070, 0.00069570448, -0.01408064459, 0.00417302409, -0.03197499365, -0.00135014392, -0.01822609454, 0.01761288568, 0.00671465974, -0.02174174786, -0.01175958756, 0.01083515119, 0.01185817830, 0.00767331943, 0.02209044993, 0.02572701126, -0.02973283455, 0.00029780506, -0.00972844753, 0.00618792512, 0.01699288934, 0.00679056812, -0.06124914438, 0.00058028661, 0.04032526910, -0.00300848251, 0.00419148756, 0.00262941909, -0.01530152187, -0.01387017313, -0.03059170954, -0.00091132615, -0.03366617486, -0.02489776537, -0.04709408432, -0.03666289523, 0.00250132382, 0.02150062099, -0.02109843679, 0.00786879845, -0.01380875148, 0.03325674310, 0.01261200290, -0.05012704432, 0.03255166486, 0.02298607305, -0.03902648017, 0.03655354306, -0.02298775129, 0.01530609466, 0.02434428781, 0.00868665054, -0.01150832418, 0.00547291245, 0.00981185678, -0.03565634415, -0.01355100982, 0.00102433143, -0.01948934235, 0.02552600764, -0.02137932554, -0.04262902588, -0.01574075595, 0.02525499463, 0.03628345206, 0.01442449074, 0.01726771705, -0.03151679039, -0.01218951866, -0.00140992808, 0.02081262879, 0.01276877616, -0.03305023909, -0.01097780466, -0.00861481763, -0.04390211776, 0.01663988829, 0.00731439795, -0.02809615806, -0.02593907714, -0.05036854744, 0.00800022669, -0.01570880972, -0.02445210144, 0.00193382613, 0.00123818498, -0.01391936280, -0.01175252534};
#endif

#endif
